<?xml version="1.0"?>
<opencv_storage>
<opencv_ml_svm>
  <format>3</format>
  <svmType>C_SVC</svmType>
  <kernel>
    <type>LINEAR</type></kernel>
  <C>1.</C>
  <term_criteria><epsilon>1.1920928955078125e-07</epsilon>
    <iterations>1000</iterations></term_criteria>
  <var_count>1764</var_count>
  <class_count>2</class_count>
  <class_labels type_id="opencv-matrix">
    <rows>2</rows>
    <cols>1</cols>
    <dt>i</dt>
    <data>
      0 1</data></class_labels>
  <sv_total>1</sv_total>
  <support_vectors>
    <_>
      0.00772516709 -0.00584716303 -0.0130374972 -0.0102646509
      -0.00871155132 0.0293226652 0.0460449494 0.0457286537 0.0303849634
      0.00240835128 -0.0113315796 -0.0197958443 -0.0167842861
      0.0120219849 0.0452425145 0.0472613424 0.0478606373 0.038029097
      0.0222855266 0.0129213464 -0.0225684587 -0.0373902842
      -0.0161043275 0.0359849744 0.0539856404 0.0526814945 0.0370913781
      0.0271062981 0.0157532822 -0.0183940679 -0.0145274065
      0.00393398618 0.0474457778 0.0553389825 0.0571719036 0.0445495173
      -0.0119391298 -0.014234826 -0.0092325164 -0.00653683534
      0.0024564343 0.0286553614 0.0413095877 0.0369297713 0.0186891686
      -0.00779979536 -0.0108168544 -0.00111962296 0.0112452172
      0.00215890259 0.0196326114 0.0365847535 0.0331346579 0.00653428491
      0.0103341835 0.0118711088 -0.00540099852 -0.00448298454
      0.00601036148 0.036704585 0.042859897 0.040429391 0.026501758
      0.00901232939 0.0059398422 -0.00130174553 0.00633323705
      0.00176284101 0.0334483013 0.0452457629 0.0498046167 0.0241854116
      -0.0129131172 -0.00287856301 0.0127428211 0.00568985241
      -0.0056258915 0.0198539421 0.0249090232 0.0117354235
      -0.00874408055 -0.00693960162 0.0139887119 0.0195136759
      0.00588583434 -0.00518571865 0.0182936396 0.0222571492
      0.0138131687 -0.00838591531 0.0140187349 0.0123464381 0.0177856293
      0.0158952381 -0.00311613549 0.0252118371 0.0369026326 0.0394575112
      0.0249463916 0.0223828126 0.0306614339 0.0150690321 0.0178785473
      -0.00209551724 0.0276785884 0.0362245999 0.0269335955 0.028555356
      -0.0238318518 0.0120611656 0.0225226916 0.0163357165 -0.0076312148
      0.00512589328 0.0286410488 0.0159890354 -0.0175128281
      -0.0349162742 -0.00613828748 0.0177898239 0.0168335121
      0.00167089386 0.0214720592 0.0258525703 0.0159251746 -0.0174386669
      0.00923114736 0.0245943815 0.0224106405 0.0181670412 0.00698347623
      0.0211302694 0.0360675119 0.0279116053 0.0163108483 -0.00143173512
      0.0123758176 0.0182355531 0.0217670258 0.0147581697 0.0365368091
      0.0408780649 0.0318241864 0.0122582018 -0.0174680818 0.00652208179
      0.0173407383 0.00214678538 0.00240187137 0.0273046978 0.0290737133
      0.00587601075 -0.0192288645 0.00818450376 0.03153437 0.0231323875
      -0.00846432056 0.00703509897 0.0382204838 0.0318899713
      0.00354280835 -0.0201526284 0.00551675027 0.0178583171
      0.0128872944 0.00689357985 0.00923440047 0.0406311229 0.0370066278
      0.0264216866 0.00558938971 0.0236578025 0.0387232676 0.027559286
      0.0121955499 0.0238744803 0.0360358171 0.0292293876 0.0258443691
      0.0214867312 0.000796735229 0.0213718247 0.0247359332
      0.00611058902 0.00137764041 0.0297256447 0.015711559
      0.000693228852 -0.0204469394 -0.00327351061 0.0301238224
      0.0405200459 0.0226312298 0.0152385533 0.038546335 0.0137442145
      0.000733484689 -0.00839788001 0.0148353055 0.028109096
      0.0255552959 0.0116122095 0.0126170227 0.0246481784 0.0151034389
      0.0174485873 0.0277926177 0.0168384071 0.044783935 0.0489550903
      0.031888783 0.00592870358 0.0258051269 -0.00499856938
      0.00318021094 0.0248060916 0.0112264073 0.0400058068 0.0380384028
      0.0100756008 -0.00542142289 0.0287442133 0.00178310543
      -0.0115402499 -0.0023397773 0.0255341846 0.0535538159 0.0359325148
      0.00782396365 -0.0123850442 0.0316765718 0.0194863472 0.0216945428
      0.0147043187 0.0236357972 0.0555560477 0.0507087596 0.0278775301
      -0.00526428316 0.00741622318 -0.0013295511 -0.00512959529
      0.0233105607 0.0349480212 0.0501669459 0.0523264743 0.0300102066
      -0.00420139078 0.0128434002 0.00254722172 0.0100818267
      0.0273141451 0.00797182508 0.00389637332 -0.0168876871
      -0.0423739552 -0.0251321513 0.0188651085 0.0480837747 0.0436978452
      0.0168400891 0.014922535 0.0168518759 -0.0108073587 -0.00909834914
      -0.00548976194 0.0306095593 0.0481144227 0.0441079699 0.0191042852
      0.0099842865 0.0186582804 -0.0221183915 -0.0373712219
      -0.0173899587 0.0279122069 0.0438686311 0.0505198278 0.0236858707
      0.011331182 0.0198000576 0.00304725999 0.00567363203 0.0104670636
      0.0418696292 0.0449780039 0.0400173478 0.0172637664 0.00176106591
      0.00731383217 -0.0102495346 -0.0110994503 -0.00141405826
      0.031069655 0.0377471633 0.0253632125 0.011599944 0.00638256501
      0.00741002103 -0.00512784626 0.00148285902 -0.00832023937
      0.027197402 0.0392259285 0.029989196 0.0137070213 0.00454378501
      0.0207612664 0.00124204846 -0.0182822607 0.00755403424
      0.0350418687 0.0419793949 0.026587069 0.00479759881 0.0184892323
      0.021740457 0.0182758719 -0.00158144394 -0.00829527713
      0.0295230765 0.0263809208 0.0243365057 0.0173238665 0.00375398248
      0.00325523783 0.00025129976 0.00851859804 -0.0199787207
      0.0121396501 0.0308399256 0.0247653853 0.00577533571 0.0121554509
      0.018541079 0.00911700446 0.0130372299 -0.021655472 0.0174796209
      0.0261362921 0.0245951712 0.020376822 0.0085598873 0.0106176212
      0.0103409952 0.00338947726 -0.029110441 0.0202202741 0.0204550084
      0.0198597163 0.00895776041 0.00459813047 0.0212349426 0.0218191389
      0.0215142425 -0.0222135 0.0245189331 0.0310894959 0.0332126915
      0.0156240035 -0.00663837558 0.00799972005 0.0159789287
      0.00566943502 -0.0267502274 0.0179953706 0.0237612221 0.0138850026
      0.00365130091 -0.00478151115 0.00678108074 0.0164959654
      0.00815379992 -0.00457414426 0.0181014743 0.0298269615
      0.0195579976 -0.00336254085 0.00706812507 0.0290881954 0.031683404
      0.00699072378 -0.0240041073 0.0157800205 0.0389582068 0.045032952
      0.0195780788 0.0160356853 0.0343160369 0.0418005623 0.0104634902
      -0.00795326196 0.0203311015 0.026249351 0.0384596065 0.0149284527
      0.000961050973 0.0110452482 0.0187243726 0.00515494123
      0.00435937056 0.0186742321 0.0191085059 0.00814616773
      -0.00352041121 0.00776649406 0.0161150843 0.026295187
      0.00776447961 0.004561326 0.0179525428 0.0114536667 0.0151755754
      0.0144557981 0.0143466182 0.0284767598 0.0383479521 0.0172454249
      -0.00361876795 0.0245619472 0.0243055373 0.0190831441
      -0.00104922266 0.0137770046 0.0270333774 0.0358138271 0.0132463146
      -0.00196841941 0.0313300826 0.0169191249 0.0204357728
      0.00361143076 0.00200870284 0.0118247075 0.0208075345
      0.00709093548 -0.00888314564 0.0221604519 0.0151769249 0.021001922
      0.0176951587 0.0113730906 0.0214214493 0.0306339152 0.0100544412
      -0.00571973668 0.0277162287 0.0121458601 0.0137770297 0.0211216882
      0.00675123418 0.0245827828 0.0340936817 0.0022782567
      -0.00325430045 0.0394753441 0.0305933356 0.0194313489
      0.00884445198 0.0200960357 0.0213962775 0.0135724936 0.0118127866
      -0.00249913451 0.0363823064 0.0311841145 0.0194091797 0.0204066038
      0.0195667893 0.0279937983 0.0318322331 0.0186502468 -0.00772401737
      0.0111412099 0.00443724077 0.0118356496 0.0193535127 0.0254993774
      0.0409321152 0.0429866053 0.0257086847 -0.00691881403
      0.00439372798 0.0097136274 0.0219372883 0.0213575922 0.0206724424
      0.0328955054 0.0249953475 0.0235138144 0.00694856187 0.0140850488
      0.0192635991 0.0243305322 0.02146958 0.0194570161 0.0357765891
      0.0337708816 0.0285302959 -0.00355832744 0.00466729095
      0.0111083621 0.0384112969 0.0267876666 0.0135224955 0.0188770033
      -0.0241800155 -0.03775144 -0.0378822275 0.0286749694 0.0354758315
      0.0447229482 0.017397929 0.0113565456 0.0319550745 0.00197929284
      -0.00390997808 -0.0145470155 0.0420696214 0.0400295332
      0.0283354223 0.00521774963 0.0202829931 0.028443519 -0.00553050498
      -0.0229373574 -0.0420713238 0.02967708 0.042252969 0.0496851802
      0.0156221362 0.0155996745 0.0321122333 0.0121529941 0.00271973014
      -0.0118139675 0.0436280258 0.0491950698 0.0413962007 0.0151800783
      -0.000612171483 0.0238064528 0.00981965847 -0.0100046517
      -0.020853363 0.0246619172 0.0316138789 0.0214975532 0.00438718405
      0.0116514936 0.0161445476 0.0129075674 -0.00465064496
      -0.0259176344 0.0290597007 0.0224379189 0.0212732684 0.0164636094
      -0.00446995394 0.0184505396 0.0114488443 0.00870294124
      -0.018501075 0.0288345292 0.044216644 0.0409911498 0.00690069608
      0.00864911638 0.0119265011 0.000726191327 0.00748359552
      -0.0170758385 0.0457187109 0.0403229408 0.0452584848 0.0235736985
      0.00459805829 0.00564327324 0.0043694796 -0.00356562319
      -0.031770166 0.0225817058 0.017634429 0.0107721351 0.00733196922
      0.00111223559 0.0252839029 0.0142132137 0.0132948374 -0.0194211435
      0.0264081936 0.0288491584 0.0252325814 0.010015158 0.00492771948
      0.0109168151 0.00269271433 -0.00364258885 -0.0236135107
      0.0371086262 0.0336955674 0.0336361751 0.0173630472 0.0152819967
      0.0258646999 0.0035384153 0.0159104709 -0.0123439543 0.0256347395
      0.0284128543 0.0344844684 0.0107498905 0.00238444097 0.029246863
      0.0215025824 0.00165279 -0.0325390883 0.0136697209 0.0304094777
      0.0398082994 0.0124361003 0.00863193907 0.0304491706 0.0337301716
      0.00469492516 -0.0267302264 0.0195204616 0.0263335649 0.0465784147
      0.0119799087 0.00895491708 0.0267944243 0.00888673775 0.0120917922
      -0.0186530463 0.0176267512 0.024791671 0.0369939171 0.0025450699
      -0.00184939813 0.0198246092 0.0230860803 0.00901673455
      -0.0232960582 0.0310004447 0.0270768665 0.0454989709
      0.000433533976 0.00874817837 0.0292657893 0.0358358584
      0.0126362871 -0.0273239948 0.0214312002 0.0268022269 0.0288672801
      -0.00402243715 0.014287007 0.0357089117 0.0288867801 0.0107644107
      -0.0230546258 0.0237324592 0.0220971908 0.0239031836
      -0.00619846862 -0.0055387523 0.0217968188 0.0278987344
      0.0128559014 -0.00806581974 0.0336429812 0.0317688696 0.0398904569
      -0.00480910717 0.0108617013 0.0351674818 0.0191301797 0.0178255178
      -0.00420225179 0.0247296225 0.0205471553 0.033739984 0.00869795587
      0.0166879669 0.0332917348 0.0245986637 0.00494884793 -0.0110915294
      0.0265023205 0.0254684351 0.0239287261 0.00482004276 0.0195695944
      0.0224408749 0.0114767989 0.0111044636 -0.00493061217 0.030784592
      0.0340745784 0.0222415831 0.0164160859 0.0183534157 0.0271105338
      0.0120126745 0.0113286553 0.00152418076 0.0274937972 0.0285030119
      0.0326188877 0.014645271 0.0275664479 0.0302938875 0.0138579905
      0.00798605569 0.00603560917 0.0313665718 0.0451167822 0.0404672027
      0.0301680807 0.0124137448 0.0286611896 0.0160030387 0.0189205669
      -0.000542754016 0.0159316491 0.0266528223 0.026902996 0.0137351295
      0.00869558472 0.0266030692 0.0249126107 0.0217478499 -0.0146433292
      0.00533135049 0.0256292894 0.0420166105 0.017341787 0.0269995332
      0.0328807868 0.0159182698 0.00967850722 0.00323563698 0.028717136
      0.0430986807 0.0409519933 0.0314127132 0.0291391481 0.0344397984
      0.017228635 0.014257947 -0.00935862307 0.0170069132 0.0434144251
      0.0550906733 0.0427897125 0.00514955865 0.0159636289
      -0.00242587598 -0.0194732342 -0.0466249026 0.0201768037
      0.0275671743 0.0317722261 0.00376456114 0.00645826152 0.0259884428
      0.0164406151 0.0102281002 -0.0195472874 0.0285851136 0.0410639457
      0.0245855171 0.012120164 -0.00934932288 0.00783328805
      0.00901591685 0.00629458111 -0.0213145129 0.00959528424
      0.0184754282 0.0149468258 -0.00388988876 0.0111828009 0.0245721824
      0.0288841669 0.0304565616 -0.00415309239 0.0187970046 0.0212841853
      0.0189590082 0.0170013066 -0.0121039897 0.00413301401 0.0100378385
      0.0147519158 -0.0269645527 0.0169346966 0.030604925 0.0310804546
      0.00177127181 -0.00850945991 0.00615293533 -0.00477633346
      0.0119290501 -0.0260447897 0.0312246736 0.038037397 0.0371316299
      0.0179263223 0.00994241424 0.0223853868 0.0201374162 0.0208258461
      -0.0257183518 -0.0019957507 0.0231409557 0.0263146982 0.0139736682
      0.00420238776 0.0138945719 0.00747995917 0.0252179969
      -0.0198827386 0.016132256 0.0336892381 0.0340023339 0.0124673098
      0.00688610319 0.0155138131 0.00588280894 0.00638328306
      -0.0327322148 0.0226255823 0.0287712496 0.030660091 0.0255582929
      0.0116823213 0.0127743846 0.0104619954 0.0123681054 -0.0202998649
      0.018388113 0.029852936 0.0331361257 0.0196706019 0.000347030204
      0.0132453805 0.0137414951 0.0199845489 -0.0239213426 0.021050062
      0.0279365387 0.0220266711 0.0138339028 0.0056927409 0.017446138
      0.0177684817 0.0226305537 -0.01402748 0.0148455063 0.0223092958
      0.0300510693 0.0162693094 0.00143218657 0.0157619696 0.0167785268
      0.0215801485 -0.0148816984 0.0212066174 0.0210618507 0.0286209527
      0.0140011311 -0.00705360062 0.0194550846 0.0230988897 0.0139900902
      -0.00931174494 0.0236758906 0.0236389991 0.0346284471 0.0150929876
      0.00714810239 0.0124107413 0.0146760801 0.0237392616
      -0.00623734063 0.0190437939 0.0249209944 0.0334661677 0.0202020165
      -0.00194111373 0.00978981983 0.019866094 0.0193718635
      0.00071625592 0.0248946119 0.0290749148 0.0379763842 0.0204301029
      -0.00598788541 0.0179043505 0.0244630929 0.0149419364
      -0.00595402718 0.0250779148 0.0339480303 0.03684742 0.00671776151
      0.00760702649 0.0302746445 0.0100396629 0.00644462416
      -0.00466969283 0.0265453234 0.029669404 0.0387591273 0.0118567441
      0.00228674593 0.00815712567 0.00933921151 0.0150081078
      0.00402338384 0.0272059459 0.0304707177 0.0352345929 0.0183898732
      0.00637889607 0.0161707103 0.00161300297 0.00186108029
      -0.00263257325 0.0310133863 0.0217832774 0.0325777568 0.0175157152
      0.0162852239 0.0258644428 0.00827705301 -0.00444702851
      -0.00253972481 0.0320338756 0.0276727472 0.0249212068
      0.00515199965 0.0289638638 0.029304212 0.012431304 0.00509473728
      0.00940939318 0.031062182 0.0405429825 0.0254085846 0.0178552214
      0.0148137817 0.0236822683 -0.000858243497 -0.00881214626
      -0.0071354406 0.0281466413 0.0290007405 0.0326287225 0.00695466204
      0.0154899238 0.0339264572 0.0239384416 0.0101968804 0.00279671233
      0.0259464122 0.0324788243 0.0323997475 0.0133607527 0.0167782269
      0.0246414132 0.0156046227 0.0110277086 0.00558032561 0.032564383
      0.0365754366 0.0360278599 0.0175987277 0.0211054217 0.0109500512
      0.00502490811 0.00717532355 -0.00913053844 0.0285261068
      0.044501923 0.0570279546 0.0357240997 -0.00402714312 0.0232591946
      0.0185189918 0.00780272111 0.000588846509 0.0332325995
      0.0387859792 0.0352199376 0.0132534662 0.00568160694 0.00148998608
      0.00684308587 0.00315387058 -0.00745519623 0.0176547635
      0.037776202 0.0570302457 0.0242863018 9.12985779e-05 0.0127406707
      0.0274281334 0.0169611275 -0.0122477291 0.00163988338 0.0191148296
      0.024920512 -0.00203430164 0.0130908266 0.0180464648 0.0304654371
      0.036619436 0.00248459028 0.0198269822 0.0261327382 0.0317287147
      0.0198126957 -0.00395076443 0.00110871566 0.0218190961
      0.00848762318 -0.0179471802 -0.000804478943 0.0122118704
      0.0212614927 -0.0117438277 0.00776761863 0.00630508224
      0.0183156803 0.0206035767 -0.0170241948 0.00222879113 0.0148119899
      0.025947703 0.0168347731 0.0120278001 0.0124282511 0.0174623262
      0.0298336092 -0.00683075842 0.00388328452 0.0138361175
      0.0219856389 0.0150252422 0.00768627878 0.0102359308 0.0128357904
      0.0336488821 0.00503870333 0.0209333766 0.024264317 0.0225124639
      0.0115033425 0.00291418051 0.00308839162 0.00990124233 0.013073178
      -0.0234943889 0.00402607163 0.0102197658 0.0239050295 0.0123619931
      0.0121367145 0.00959102809 0.0109972553 0.020711517 -0.0100768814
      0.0160983913 0.0210927706 0.0249569863 0.00818948448 0.0057398947
      0.0111958757 0.0185041353 0.0293295402 -0.000401909696
      0.0227312557 0.0307735689 0.013204339 0.0101122493 0.00314013101
      0.011410349 0.0212531462 0.0281126294 -0.00864189491 0.014588994
      0.0264603216 0.0257741529 0.00959222391 0.00913737249
      0.00979498494 0.00938057061 0.0212551299 0.000146317834
      0.0224283077 0.0333294533 0.0184209552 0.00317067234 0.00547457114
      0.00821471587 0.00458219927 0.00558135007 0.0032693753
      0.0173067804 0.0264391713 0.0257184822 0.00226135785 0.0019195436
      0.00784665439 0.0126825729 0.0158116296 -0.00484315353
      0.0187603049 0.0360863172 0.0373050943 0.0132459402 0.0117178606
      0.000150761043 0.00712179858 0.0128744636 0.00588511163
      0.0291606411 0.0403871387 0.0401145518 0.0219802186 -0.00332680298
      -2.08847705e-05 0.000809117861 -0.00243609445 -0.00473381253
      0.017367648 0.0392459817 0.0406444669 0.0123488549 0.0017824386
      0.00432610698 0.00558494171 0.00500471145 0.00325773214
      0.0205465127 0.0322527364 0.0407860726 0.019497091 0.0135610998
      0.00025135951 0.00649567228 0.015140458 0.0167044606 0.0322081298
      0.0325684585 0.0287196077 0.0137391426 0.00326588308 0.00581260491
      -0.0029876437 0.00892297551 0.0196394064 0.038131021 0.0395438746
      0.0352567211 0.0143198855 0.0115122404 0.0049307975 0.011416683
      0.00951303355 0.00478229811 0.0289249364 0.031762775 0.0278269853
      0.00100450101 0.00578038394 0.0109051857 0.00329259317
      0.0118293734 0.00679194136 0.0366382226 0.0416812934 0.0228591133
      0.000310550153 0.00420328602 0.0134390658 -0.00069727574
      0.00150626374 0.00736648683 0.026856862 0.0324700065 0.0308661703
      0.00364050735 0.00812369492 0.0306533407 0.0223612264
      0.00972719025 -0.000177311333 0.0250217393 0.0354187563
      0.0346490815 0.0123106968 -0.000229850542 0.014583216
      0.00258026225 -0.00434262212 -0.000331243849 0.0297748912
      0.030439496 0.0229151584 -0.00497063668 0.00781572238 0.0193144921
      0.00885885209 -0.00881191157 0.00429175003 0.0250593107
      0.0338046364 0.0285387244 0.0133403149 0.00519199064 0.0186722372
      0.0189369135 0.00180309976 0.00834952667 0.0280888472 0.0387582071
      0.0308200885 0.012671073 0.0126903746 0.00978228264 0.0125753842
      -0.00938132592 -0.00450034952 0.0246132426 0.0490314662
      0.0452478044 0.0191137921 0.00897988677 0.0128495395 0.00710043684
      0.00442577805 0.0151233748 0.0371788032 0.0471572764 0.0277418438
      0.00877623446 0.0263160132 0.0109472116 -0.000951992348
      -0.00477036228 -0.00739138946 0.0341316387 0.0525983348
      0.0521563925 0.0229796525 0.00908943545 0.0163375288 0.0282485429
      0.00829693396 -0.0112245269 -0.000848249125 0.0127209155
      0.0303973556 -7.76735178e-05 0.0217872784 0.0187126361
      0.0228182692 0.00864868239 -0.0137289139 0.0130021712 0.0246842746
      0.0365393683 0.0189020261 0.00419297069 0.030415222 0.0327909552
      0.021008458 0.00110216835 -0.00274173217 0.0115272636 0.0110397665
      -0.00809853151 -0.00809649844 0.0150240548 0.0256283488
      0.0107388198 0.00674241967 0.0184868835 0.0238409471 0.0185036175
      -0.00372044183 0.0199377444 0.0155753968 0.0170415062
      -0.000968028267 -0.018867474 0.0206958205 0.0284515843
      0.0305220187 0.0190898012 0.0126195922 0.0161311533 0.017057091
      0.00442935992 -0.00817982573 0.025805233 0.0355159156 0.030680446
      0.0226524044 -0.0239146762 -0.00134458498 0.00735358987
      -0.0122389933 -0.00454685092 0.0279133189 0.0310820434
      0.0170120001 -0.00728672463 -0.00771790091 -0.00113656058
      -0.00176495267 0.00155652221 0.00132585992 0.0288060252
      0.0388982557 0.0306054559 0.00330004725 0.00184557075
      0.00976985041 0.0151962005 0.0151458541 0.00909158215 0.0231176093
      0.0369948857 0.0204412472 0.01859897 0.00166879024 0.00790337566
      0.00766106229 0.00399447745 0.0120968474 0.0319219194 0.0354134887
      0.0268221516 0.0194875468 -0.0103968848 -0.00418890081
      -0.00496839872 0.0198795721 0.00784842391 0.018312918 0.0226863846
      0.0237085521 0.00105006353 -0.00972254109 -0.00782380067
      0.00742943166 0.0123742819 0.00881965272 0.032658264 0.0218508597
      0.0189474709 0.00645634625 -0.00166055141 0.00294607528
      0.0119499741 -0.00172286865 0.000181596071 0.0317830816
      0.039209675 0.0358424857 0.0161018781 -0.00368982041 0.00488346163
      0.0278471708 0.0120662889 0.00836892612 0.0254873671 0.0413838215
      0.0334676616 0.0159482136 -0.0176401641 -0.00518668583
      0.0152313346 0.0107620219 -0.00196228316 0.0401230752 0.037747886
      0.0201242249 -0.0133989556 -0.0178997423 -0.00577003881
      0.0130640501 0.0205612015 0.00660653552 0.0360912122 0.0419237092
      0.0251977034 -0.0032051194 -1.89190564e-06 0.00118409481
      0.0232845452 0.00987522304 0.00280859927 0.0228288136 0.0311888214
      0.0144351404 0.00398790371 -0.000146397128 0.00746480422
      0.0180996861 0.0107940976 0.00859327707 0.0378899202 0.0340279266
      0.0122021986 -0.00516203791 -0.0105113862 -0.000437432143
      0.0101859244 0.0169738606 0.00825358089 0.0298778936 0.0349064544
      0.0162568241 0.00268606236 -0.0139398947 -0.000135114737
      0.0168993901 0.0159563217 0.0150063327 0.0450167954 0.0399551094
      0.0120581649 -0.00865260512 -0.00355479517 0.0159328505
      0.0154024689 0.012711809 0.00659280922 0.0349279903 0.0246348642
      0.011024477 -0.0136768408 0.00470185233 0.0153437573 0.0131150307
      0.00900203548 0.00808546692 0.0267831609 0.0351920128 0.0331222042
      0.0086158812 -0.0166102182 0.000798729074 0.0105457436
      0.0185317136 0.0170224793 0.0415944867 0.0403746068 0.0157469511
      -0.0149763394 -0.00180591247 0.00606536539 0.00233267108
      -0.00215258938 0.0201630704 0.0350019895 0.050601732 0.030689951
      -0.000701535086 0.0130317379 0.0239890106 0.0193251241
      0.00830231514 0.0027593642 0.0299333073 0.0398575515 0.0273916312
      0.0128265265 0.0327546261 0.0199884679 0.000806741649
      -0.00730319414 0.000528475211 0.0395676643 0.0418497287
      0.0455142409 0.0292818472 0.00382033037 0.0171425119 0.00608274899
      2.44595212e-05 0.0112528745 0.0283172298 0.0437907428 0.0213091373
      0.00513254385 -0.00170775945 0.0107717961 0.00232633646
      0.00651859585 0.0141858766 0.0438548177 0.0393451974 0.0248548146
      0.0060907728 -0.00301957177 0.0381255448 0.0387893878 0.0374688357
      0.0179002918 0.00827813614 4.02476735e-06 0.00227232836
      -0.0126765668 -0.0109468671 0.0225813501 0.0257102828 0.0342340507
      0.0284070503 0.0286994446 0.0177652426 -0.000470736559
      -0.00682249945 -0.0186174363 0.021973988 0.0281888824 0.0478824824
      0.0236040615 0.0320934393 0.0158780906 0.00413487293 -0.0215372313
      -0.0153827211 0.0155912815 0.0301710945 0.0473291203 0.0360206962
      0.0378252864 0.0148741938 -0.0029516567 -0.0136687206
      -0.0170227308 -0.00433736714 0.0140335122 0.00920749549
      0.00395307364 0.0275342353 0.0356667377 0.0156726893
      -0.00523537397 -0.00677879853 -0.00466719363 0.0124750547
      0.0194058511 0.00395340845 0.0248876773 0.0381225236 0.0375236087
      0.000888378185 -0.0142971752 0.00856152922 0.0265865959
      0.0358529501 0.0227435809 0.0260123331 0.0182786919 -0.00419072993
      -0.00707405945 -0.0102103939 -0.0018535729 0.0256428067
      0.0440249182 0.0165094044 0.0314485878 0.0346701294 0.0157042425
      -0.00152837427 -0.01359409 -0.0147896213 0.00791113824
      0.0284886826 -0.00352137815 0.0145454602 0.0260565039 0.0329630747
      0.000485596189 -0.00815844443 -0.00953340717 0.016821444
      0.0262582637 0.00552893197 0.0287968293 0.0311506987 0.0292807855
      0.0123493066 -0.0179628953 -0.0103456052 0.0240419898 0.0377571099
      0.00176824944 0.0197409969 0.0293865874 0.0200880542
      -0.00973862503 -0.00549696432 0.00539860129 0.0262561068 0.0212065
      0.00631216355 0.0214465261 0.0322073512 0.0292084105 -0.0018876089
      -0.0106401145 -0.00336855534 0.0213728603 0.0180422142
      0.00104730902 0.0356257632 0.0368645862 0.0297122337
      -0.00401316211 -0.0102441506 0.00248237513 0.00897145551
      0.016348036 0.00616652844 0.0339965299 0.0411768965 0.0303274393
      0.00603654049 -0.00968823209 0.00139898399 0.016446108
      0.0124606788 0.0159628019 0.0338854678 0.0383093394 0.03284695
      -0.00591801153 -0.0158140846 -0.000692755624 0.00217168964
      0.0160580128 0.0253243055 0.0455087274 0.0440322272 0.0311050359
      0.0041982471 -0.00931362063 0.00937603693 0.00515221711
      0.0086706141 0.00943352282 0.0309305266 0.0398724079 0.0300131571
      0.00809428282 -0.0105590187 0.00913656875 0.00482203392
      0.00333398674 0.0125002069 0.037421044 0.0452929735 0.0321463533
      0.000427065126 -0.0103902053 -0.00155801629 -0.0050746398
      0.0129507678 0.0174548049 0.0351097956 0.0456380956 0.0358189046
      0.00666058762 -5.47372765e-05 -0.00589388609 -0.00336492574
      0.0114981364 0.0199922677 0.0348745659 0.058233384 0.0458679087
      0.00887535885 -0.00275369151 0.0111843077 0.0113383876
      0.00897018425 0.0172683075 0.0311484188 0.0403786711 0.0218745954
      -0.00286461413 0.00629343884 0.0227815323 0.0145570245
      -0.00642695324 0.0200965758 0.0379000343 0.0454572402 0.0236599315
      0.00654738909 0.0076568136 0.00197799411 -0.0102938591
      0.000438231102 0.0181601588 0.0312651098 0.0514035746 0.0367504731
      0.00219421578 0.00501544587 0.00952702109 -0.000891385775
      -0.00256281206 0.0162410475 0.041768413 0.0479659811 0.0358821601
      0.00673849322 -0.00162296346 0.0276587531 0.0116139781
      -0.0107024042 0.022125423 0.0310286079 0.0421554856 0.0269840844
      0.00333959959 -0.00896518584 0.0141005907 0.0069614579
      0.00906314887 0.0334445685 0.0446595363 0.0507257096 0.0320411846
      0.000565405411 -0.0146694304 0.00547271548 0.008898478
      -0.00647650193 0.0107764788 0.0409190431 0.0422562137 0.0315362215
      0.00322409323 -0.0149745876 0.00547696557 -0.00396440504
      0.00636476511 0.0244068988 0.0441100933 0.0526547395 0.044096943
      0.00729222922</_></support_vectors>
  <uncompressed_sv_total>47</uncompressed_sv_total>
  <uncompressed_support_vectors>
    <_>
      0.142597705 0.231422871 0.213529021 0.158630311 0.191897571
      0.0587752722 0.0373971239 0.0375260301 0.0624242723 0.21269232
      0.254431993 0.254431993 0.204106584 0.152875677 0.0431272462
      0.0351374485 0.0292124916 0.0968228802 0.190555319 0.233133331
      0.254431993 0.254431993 0.230528519 0.0404098406 0.0376250483
      0.0673628822 0.119716913 0.136446357 0.254431993 0.254431993
      0.254431993 0.190657243 0.0590097755 0.0313653983 0.026635645
      0.05672336 0.23782523 0.23782523 0.203342766 0.148731425
      0.118870437 0.0156071903 0.0382713154 0.0691766292 0.206137434
      0.23782523 0.23782523 0.186220035 0.156594336 0.110396795
      0.0378927886 0.0872760117 0.163514972 0.23782523 0.153063729
      0.22118631 0.23782523 0.192667499 0.182180926 0.0640591979
      0.0373838879 0.0452119932 0.118999898 0.171558157 0.183983415
      0.23782523 0.137962908 0.23782523 0.0855069458 0.113890924
      0.0990826488 0.185980722 0.265176743 0.265176743 0.226041302
      0.128030822 0.074825123 0.033130914 0.102670245 0.11339429
      0.203810647 0.265176743 0.265176743 0.228327587 0.0800770745
      0.0933737308 0.0333059244 0.0893987566 0.0516074263 0.265176743
      0.132628322 0.183180884 0.199529052 0.0815158859 0.265176743
      0.0524826795 0.137239739 0.0850324333 0.110580683 0.240866497
      0.0994038135 0.142021507 0.053862486 0.230947554 0.0299224947
      0.151351765 0.0713209733 0.213171721 0.272496372 0.21111846
      0.115049988 0.0101078795 0.0758805424 0.0118783033 0.0480462722
      0.10655266 0.272496372 0.272496372 0.272496372 0.139079228
      0.00590865687 0.0707964897 0. 0.0754182413 0.241009414 0.272496372
      0.272496372 0.0598763488 0.131800368 0.00787781365 0.0659362152
      0.0108628832 0.0934182331 0.0912620947 0.272496372 0.253526241
      0.106970072 0.244314954 0.0411194749 0.105119392 0.00347146555
      0.121423721 0.179343835 0.272496372 0.243528724 0.200744763
      0.118043855 0.117405966 0.14108409 0.0188284684 0.0545366071
      0.123250663 0.263906807 0.237612829 0.0686875135 0.140101805
      0.192141712 0.241991833 0.032603506 0.0501019917 0.170692325
      0.265220255 0.262720108 0.0512007028 0.11200577 0.068507731
      0.101963565 0.02461957 0.137706801 0.177012488 0.265220255
      0.265220255 0.032383468 0.0804474875 0.045857653 0.0810418129
      0.0537633859 0.178856373 0.265220255 0.265220255 0.286719292
      0.0125370855 0.0477357432 0.0412107855 0.0940366536 0.0280446988
      0.0342360288 0.150403872 0.286719292 0.286719292 0.00262549822
      0.00968860649 0.00374756381 0.0177456774 0.0111472951 0.10454715
      0.240687832 0.286719292 0.286719292 0.0135318916 0.0419020019
      0.00784754381 0.037465103 0.0620422736 0.186052188 0.269525468
      0.286719292 0.286719292 0.00351554854 0.0131949065 0.00547175994
      0.0266989525 0.0327849947 0.183778688 0.286719292 0.286719292
      0.155189887 3.45327207e-05 0.00966225471 0.0195526127 0.217112556
      0.0386575609 0.218072399 0.287999094 0.218187138 0.0348756462
      0.000517990731 0.00898473989 0.0152075859 0.290964276 0.0497025773
      0.131174728 0.0914834812 0.0464044437 0.255701244 0.000517990731
      0.0193844549 0.0364800133 0.186339796 0.0738794059 0.214732975
      0.290964276 0.290964276 0.117017426 0.0117293177 0.0517209768
      0.0340008922 0.290964276 0.121888019 0.254546702 0.290964276
      0.200183183 0.234043583 0.205317035 0.234043583 0.221895605
      0.0839835256 0.101467803 0.121866874 0.119167261 0.189838469
      0.107092552 0.145621821 0.234043583 0.200601697 0.135503992
      0.164794996 0.134864464 0.0827305987 0.0884610862 0.234043583
      0.109816276 0.158830762 0.127145991 0.0467031412 0.066002667
      0.234043583 0.131368279 0.234043583 0.234043583 0.141839013
      0.149744481 0.139526159 0.0934654251 0.106434681 0.219887257
      0.16325669 0.234043583 0.0617314428 0.150744841 0.260118812
      0.173742339 0.170745417 0.0985995829 0.129431859 0.0767078847
      0.0488921478 0.0593362786 0.101235099 0.198628306 0.121680856
      0.260118812 0.0623873323 0.170739949 0.104956113 0.05812658
      0.260118812 0.198990762 0.181233913 0.167937592 0.148242429
      0.0759917721 0.183428794 0.201074734 0.247454375 0.190152049
      0.260118812 0.212555751 0.10745848 0.260118812 0.0549751818
      0.155290425 0.137042418 0.143141046 0.0416014306 0.0687688738
      0.11313165 0.0254875831 0.312725753 0.0315439403 0.148457557
      0.0670848712 0.0396764949 0.136908755 0.0431162082 0.112562023
      0.0156775173 0.312725753 0.0509406179 0.177474543 0.0804686993
      0.138027653 0.161170334 0.307859272 0.24953872 0.0178187527
      0.312725753 0.0193180852 0.107509606 0.0992797017 0.142172098
      0.278311104 0.146319389 0.151252955 0.000577724015 0.312725753
      0.0362722315 0.135687023 0.123675302 0.285346478 0.224670857
      0.0853212103 0.197752371 0.00358675071 0.145005688 0.0593302771
      0.201866493 0.121504337 0.221138597 0.231905624 0.119748376
      0.251393586 0.0378853269 0.154664621 0.0230326168 0.161602706
      0.100069158 0.227997884 0.273796886 0.0745994896 0.126185998 0.
      0.15729183 0.0461457707 0.273128003 0.128352717 0.273796886
      0.273796886 0.0742348433 0.0911708772 0.0144449864 0.142386541
      0.0179142579 0.213093415 0.082355395 0.273796886 0.222659841
      0.0649300963 0.120767966 0.0572161227 0.0621986762 0.0412386321
      0.146302357 0.132096365 0.254431158 0.266511053 0.0977621377
      0.130615681 0.0691581219 0.137337849 0.0885592997 0.234430611
      0.199363381 0.266511053 0.266511053 0.146178111 0.102727823
      0.0618870035 0.137721345 0.0111160995 0.0629760846 0.0233453456
      0.266511053 0.266511053 0.266511053 0.160661772 0.105492204
      0.226588473 0.0231896527 0.119789973 0.0632264018 0.266511053
      0.189053565 0.0454643443 0.0383786447 0.025064826 0.177394062
      0.063192755 0.216667682 0.185582981 0.251344025 0.251344025
      0.0175150596 0.0168054458 0.0224669799 0.128148466 0.0537801273
      0.209817663 0.251344025 0.251344025 0.224826828 0.17129004
      0.0583063513 0.0396364592 0.208063975 0.0138959009 0.144646734
      0.138041884 0.248774126 0.251344025 0.0975819752 0.0788332224
      0.032062307 0.251344025 0.0249901004 0.152678281 0.251344025
      0.251344025 0.193763494 0.0181345083 0.0263820905 0.0323300585
      0.12990123 0.0764980465 0.15845792 0.27252683 0.234879643
      0.14377512 0.0357824601 0.0649459884 0.0211735871 0.250772446
      0.137468442 0.277889699 0.277889699 0.19218114 0.277889699
      0.0870702043 0.0491400696 0.0174597837 0.146642461 0.0308200978
      0.0918642804 0.146970868 0.277889699 0.277889699 0.0947005823
      0.0580872931 0.00433797389 0.21964094 0.0564901903 0.169077128
      0.12839888 0.277889699 0.247174248 0.0764667019 0.095901452
      0.100055397 0.0513158441 0.0310413428 0.215260431 0.100206651
      0.240418434 0.247174248 0.15026927 0.189840302 0.236699507
      0.247174248 0.0455331393 0.146375671 0.149157107 0.247174248
      0.20517756 0.0872990191 0.124298953 0.127752796 0.15642637
      0.100018792 0.166458979 0.108987167 0.204844192 0.136277154
      0.173582405 0.228311092 0.213944927 0.247174248 0.120242365
      0.0945537016 0.0826568976 0.120359316 0.206632167 0.172042876
      0.15436548 0.177831516 0.256890804 0.0227717161 0.0551569685
      0.133884683 0.197996512 0.209513769 0.256890804 0.19739373
      0.109908059 0.256890804 0.0132410219 0.0640310422 0.0909106582
      0.163885325 0.113278665 0.150775015 0.228936657 0.197715417
      0.256890804 0.045165576 0.0393581167 0.0316114686 0.0955874249
      0.187090248 0.225835249 0.256890804 0.119488955 0.256890804
      0.0168657098 0.0658768564 0.0638398379 0.170072153 0.2095671
      0.252079695 0.252079695 0.0351307653 0.252079695 0.00177924347
      0.076033242 0.0993558764 0.229733676 0.20917961 0.113030285
      0.162494153 0.001581472 0.217368826 0. 0.0704945996 0.0915268362
      0.24120231 0.252079695 0.189874336 0.252079695 0.0363789275
      0.223960325 0.00872686226 0.0921399519 0.0720881373 0.252079695
      0.252079695 0.0972145498 0.202886373 0.0237395875 0.120328702
      0.00898589008 0.0687689185 0.0454500206 0.252079695 0.306674689
      0.0534057543 0.115612239 0. 0.154058933 0. 0.172819197
      0.0703825206 0.306674689 0.306674689 0.0262048617 0.0491112992
      0.0118901087 0.200925246 0.00458375225 0.141805157 0.0466399603
      0.306674689 0.306674689 0.056477271 0.134552836 0.0056234533
      0.0749780387 0.0570807271 0.0665351599 0.0640759841 0.306674689
      0.306674689 0.0157454293 0.0471161455 0. 0.214537337 0.0588264503
      0.104081377 0.0482281595 0.306674689 0.298957944 0.0784603283
      0.0403744578 0.0364800096 0.334755629 0.0103775812 0.045923695
      0.013651453 0.297813892 0.312977552 0.163063854 0.0471787937
      0.036047738 0.334755629 0.00471708179 0.0506713241 0.0266157258
      0.29964304 0.169424325 0.0029668659 0.0138127729 0.0100940447
      0.334755629 0.0636044964 0.150461733 0.070354782 0.169424325
      0.0916915834 0.00230756239 0.0132498387 0.0129780583 0.334755629
      0.0614376217 0.145987615 0.077917777 0.0916915834 0.277871042
      0.142341331 0.0353675261 0.0150158526 0.342678279 0. 0.100307629
      0.0922355652 0.28834939 0.278190941 0.0957741961 0.0817737356
      0.0100992946 0.358270705 0. 0.0964082852 0.205794692 0.317195237
      0.0867349505 0. 0.00100308936 0.00205179653 0.358270705
      0.0225788374 0.0710754395 0.0262557939 0.0867349505 0.0764503032
      0. 0. 0. 0.358270705 0.0515347831 0.106136821 0.0270495266
      0.0764503032 0.348475128 0.0821184143 0.039352607 0.00137057714
      0.308728307 0. 0.0287458058 0.123101242 0.348475128 0.348475128
      0.0717922896 0.0248782802 0. 0.348475128 0. 0.0237890314
      0.0518148877 0.348475128 0.0692089498 0.0015200451 0.00454855477
      0. 0.348475128 0.0190111008 0.0508889183 0.0139002278 0.0692089498
      0.0500250012 0.00195434364 0.00584814139 0. 0.348475128 0.
      0.00808879547 0.00270313327 0.0500250012 0.203771085 0.148866922
      0.215801686 0.086961925 0.229217812 0.0451805703 0.124615893
      0.155730411 0.21952413 0.133852646 0.173523888 0.220568791
      0.0976215601 0.288486391 0.0509833246 0.082979314 0.0498515405
      0.115633704 0.288486391 0.251597434 0.168612555 0.0253777802
      0.181267977 0.0302870795 0.15153873 0.188475117 0.288486391
      0.10619016 0.127501845 0.157370791 0.0160476379 0.288486391
      0.0615863577 0.134014621 0.0625886321 0.0971390605 0.117674105
      0.128178239 0.200293913 0.122594625 0.386150718 0.0501126982
      0.114309274 0.0423471853 0.102856524 0.130327493 0.132731974
      0.272311538 0.0643699244 0.386150718 0.0564244017 0.0789264217
      0.114211716 0.139612198 0.0471918918 0.0502568409 0.0837068111
      0.0424663536 0.386150718 0.157227501 0.180852652 0.0817182586
      0.0489624217 0.0581597872 0.0489895865 0.0949337929 0.0349680893
      0.386150718 0.132641941 0.0751835555 0.0858375952 0.0690681338
      0.151860103 0.118418105 0.216317862 0.0465476066 0.344263315
      0.0293013453 0.0828114152 0.0781163648 0.158090383 0.344263315
      0.0978058651 0.122931145 0.0609565303 0.344263315 0.0269546304
      0.107334226 0.0525195785 0.344263315 0.0678975061 0.0955488905
      0.11164172 0.0600413568 0.344263315 0.0201247279 0.0289425869
      0.0465936996 0.063494958 0.149388179 0.105807535 0.0875190571
      0.0804662332 0.344263315 0.0307274442 0.0922129303 0.0582194068
      0.139517412 0.304944009 0.0281309858 0.0362743065 0.0104353288
      0.304944009 0.110932417 0.100315101 0.0857941806 0.304944009
      0.241611749 0.00438243523 0.0131138666 0. 0.207447961 0.07903485
      0.0699130744 0.0424487591 0.241611749 0.228689119 0.0263947099
      0.0366072878 0.0143105965 0.304944009 0.087990813 0.168015644
      0.101342164 0.235072598 0.274922043 0.0164141115 0.0491170958 0.
      0.304944009 0.0468196012 0.0885014161 0.0603769273 0.281359315
      0.188270494 0.00838764012 0.0390501544 0.0285369195 0.340472549
      0.0591520369 0.124667689 0.084236078 0.188270494 0.1304425
      0.00652371952 0.0374586731 0.0366903245 0.340472549 0.0980740115
      0.244719744 0.132921681 0.1304425 0.129181087 0.00975612644
      0.0275488477 0.0129713267 0.340472549 0.0534911826 0.0849454477
      0.0693417415 0.136427164 0.175142482 0.0145308813 0.0170266721
      0.0166774206 0.340472549 0.101365864 0.319027245 0.268536985
      0.206518307 0.129625678 0.00036467539 0.00353444042 0.00499750208
      0.338863283 0.0418591574 0.123448171 0.0435636155 0.129625678
      0.123052552 0.000802285853 0.00240073609 0. 0.338863283
      0.0946539417 0.17992796 0.0446645878 0.123052552 0.247664019
      0.00975228474 0.0174791999 0.00227159192 0.338863283 0.0346273594
      0.21374321 0.165630624 0.267031103 0.299542397 0.0120342877
      0.0360110402 0. 0.338863283 0.0496932231 0.106002003 0.0658444241
      0.307528108 0.130828485 0.00750191044 0.0224485695 0. 0.324640006
      0.0393949971 0.144665912 0.0419086181 0.130828485 0.0884556994
      0.0200158004 0.0598947816 0. 0.324640006 0.0539439581 0.10201975
      0.025280064 0.0884556994 0.324640006 0.00930198561 0.027835045 0.
      0.324640006 0.020682333 0.107825004 0.0471178778 0.324640006
      0.324640006 0.0314417444 0.0940854028 0. 0.324640006 0.0895329863
      0.160566509 0.0472295471 0.324640006 0.192671239 0.165976048
      0.0811978653 0.0120368367 0.214206249 0.0859910026 0.153265655
      0.126644537 0.186740115 0.077861689 0.168108642 0.113898389
      0.0422627181 0.265812844 0.143678054 0.110161379 0.0814502761
      0.0683894753 0.173605829 0.16756992 0.151174664 0.072702609
      0.265812844 0.179734975 0.124512739 0.120329462 0.214520246
      0.177004904 0.265812844 0.234968752 0.186274603 0.265812844
      0.265812844 0.0548861437 0.0784743056 0.163483351 0.057111159
      0.149436489 0.135574996 0.120051317 0.297241181 0.122897327
      0.0765006915 0.0379494503 0.0382857211 0.0753071085 0.130260378
      0.179850057 0.106893197 0.297241181 0.0841777325 0.0534861535
      0.0318741389 0.0626944825 0.150633812 0.26018554 0.263014793
      0.255543381 0.297241181 0.137053981 0.0687201172 0.0174311027
      0.114803351 0.108302779 0.185778901 0.297241181 0.235473469
      0.297241181 0.0889382884 0.101305656 0.0376365334 0.092625238
      0.0979121923 0.170727611 0.227573797 0.0465220548 0.310567945
      0.0211837161 0.0366749093 0.0683942661 0.0890688971 0.234978706
      0.134948224 0.134188637 0.0474677421 0.310567945 0.0415019765
      0.117625982 0.112172149 0.231204242 0.154629096 0.172475144
      0.296821564 0.0596147478 0.310567945 0.0634061396 0.0678056031
      0.0680816472 0.148984522 0.310567945 0.0844430402 0.0799140707
      0.00144751172 0.160258576 0.0294103883 0.0801901296 0.0706915632
      0.310567945 0.272528708 0.0932027027 0.0660635531 0.0101079363
      0.276791036 0.0260848515 0.125544995 0.0740921795 0.264990807
      0.276791036 0.0985714421 0.127837956 0.0232792776 0.276791036
      0.0137718925 0.0624873787 0.0416639112 0.276791036 0.276791036
      0.127273828 0.0621055104 0.0196878146 0.149677858 0.0343067348
      0.0835498944 0.0393146947 0.276791036 0.276791036 0.140725702
      0.128719807 0.0580482073 0.231540814 0.0985528454 0.111770995
      0.0648931041 0.276791036 0.141919419 0.0537427478 0.0751913935
      0.0315197222 0.213455617 0.0227746442 0.0311570968 0.0354292206
      0.135623872 0.265582681 0.121256456 0.0533881523 0.0474641249
      0.196870819 0.0520851687 0.147750244 0.213180453 0.265582681
      0.198273018 0.151818261 0.17749168 0.067009449 0.265582681
      0.0414837971 0.0704053715 0.0826846883 0.181521669 0.265582681
      0.265582681 0.265582681 0.135497615 0.265582681 0.079495348
      0.124328934 0.152265996 0.265582681 0.318289936 0.0372298881
      0.012707917 0.00845319591 0.100436978 0.0158212353 0.0925931931
      0.121173702 0.318289936 0.318289936 0.0113989608 0.0101674916
      0.000588584691 0.246917844 0.0222022142 0.0392017849 0.0573186539
      0.318289936 0.318289936 0.116332546 0.0978071913 0.0497022308
      0.128333151 0.0566022471 0.0812285021 0.0725989342 0.318289936
      0.318289936 0.0592377335 0.0381073654 0.00980391167 0.121841073
      0.0441541001 0.0625878423 0.0417118222 0.318289936 0.314682961
      0.00990972947 0.00530896895 0.00617924146 0.147437647 0.0115510598
      0.0138410851 0.0356845185 0.314682961 0.314682961 0.0359819084
      0.0153487045 0.00829582103 0.143857107 0.0131059131 0.0232278202
      0.0389750376 0.314682961 0.314682961 0.0321359634 0.0283847507
      0.0267767161 0.196951583 0.0285958275 0.0369074196 0.0482759215
      0.314682961 0.314682961 0.122545183 0.0521373451 0.0396934338
      0.296194702 0.0312972069 0.0252580252 0.0459557883 0.314682961
      0.130855381 0.103365622 0.0697961301 0.0602787547 0.284711003
      0.119446158 0.0717873126 0.0581015162 0.118981503 0.0923324376
      0.0975898281 0.0910844132 0.134475216 0.284711003 0.19590424
      0.064758569 0.0513826348 0.110539526 0.284711003 0.279044211
      0.0924031064 0.0880139321 0.284711003 0.146495014 0.0975302905
      0.0954163745 0.183033735 0.154704809 0.116576537 0.0495790653
      0.142349884 0.284711003 0.284711003 0.188753784 0.152182341
      0.2211449 0.0887421444 0.0846113563 0.144435555 0.162148625
      0.30977127 0.120203376 0.0844959989 0.040563371 0.0971374661
      0.0754044354 0.0729156882 0.21756345 0.14827691 0.30977127
      0.094041802 0.102570541 0.0816034302 0.0856745765 0.0971619859
      0.0789192691 0.119193532 0.201037824 0.30977127 0.269712776
      0.183312297 0.180893272 0.186822236 0.0694663897 0.0568931848
      0.213126689 0.209349796 0.30977127 0.118656397 0.172696054
      0.108367972 0.0854572207 0.112811193 0.0710116327 0.141268119
      0.0772877708 0.281715363 0.0662917346 0.0567580722 0.0719775259
      0.119710982 0.281715363 0.0860531852 0.0292891115 0.0662265792
      0.10047017 0.00738377078 0.0379742458 0.0367707834 0.281715363
      0.103343964 0.0739455149 0.173174724 0.228934139 0.281715363
      0.0452690348 0.161505327 0.0979437828 0.108999781 0.281715363
      0.137555733 0.104860909 0.281715363 0.281715363 0.0122660752
      0.254717082 0.15084447 0.281715363 0.262853861 0.0585221015
      0.0312196333 0.0208884198 0.0822552592 0.0219026618 0.0585066974
      0.0649049953 0.262853861 0.262853861 0.0411114879 0.0441014282
      0.0257658754 0.14728415 0.0647687614 0.140790328 0.219410822
      0.262853861 0.262853861 0.0849334002 0.0788583979 0.0492975377
      0.185540095 0.0373853296 0.162616208 0.13926357 0.262853861
      0.262853861 0.0796133727 0.0912112445 0.0376991518 0.262853861
      0.158213869 0.22349596 0.262853861 0.262853861 0.150110856
      0.0995856151 0.117141768 0.0521312431 0.223060563 0.0352376252
      0.117462255 0.211976707 0.158073545 0.134062529 0.189803317
      0.2543419 0.122778669 0.2543419 0.0546653122 0.14605923
      0.127685219 0.113541193 0.108716927 0.0671422854 0.155518845
      0.231935829 0.2543419 0.169428945 0.187581688 0.248287946
      0.130503267 0.105842523 0.0869389474 0.2543419 0.2543419 0.2543419
      0.0835475549 0.132918268 0.101212569 0.112213358 0.27344048
      0.149450824 0.232646734 0.0968416706 0.221598268 0.117731892
      0.193455338 0.0941666365 0.27344048 0.27344048 0.105680197
      0.12413644 0.0127356471 0.151554257 0.0652703494 0.100298963
      0.0330876075 0.27344048 0.219310224 0.0604493693 0.193139702
      0.0895288289 0.27344048 0.0766701177 0.168413132 0.0947323292
      0.227834597 0.213869914 0.0522167906 0.144068733 0.0026020878
      0.21755366 0.0348500572 0.073783651 0.033690799 0.215989813
      0.19055979 0.0474782847 0.0895889178 0.0183454696 0.34111318
      0.0255434662 0.0426854789 0.028426053 0.201066092 0.161215797
      0.085792087 0.0570048876 0.0345762484 0.34111318 0.0379687883
      0.0381513722 0.034589164 0.148663223 0.104781434 0.0443671755
      0.0955667794 0.0060440544 0.34111318 0.01947877 0.0835988
      0.0844046697 0.110201046 0.34111318 0.124814756 0.0752082467
      0.0245897137 0.34111318 0.0486870594 0.172883809 0.203350559
      0.340538234 0.210196912 0.169272885 0.112077691 0.067992717
      0.229862392 0.15872623 0.155222282 0.0956583768 0.104469299
      0.124684736 0.127030313 0.0755873621 0.0645789877 0.252731711
      0.252731711 0.252731711 0.168055773 0.114969924 0.203208998
      0.093837209 0.107133545 0.0391120836 0.163904727 0.114357762
      0.184439838 0.201514557 0.149905682 0.200968176 0.0939914733
      0.0751362592 0.0479979105 0.183726996 0.252731711 0.252731711
      0.252731711 0.167101175 0.0506151207 0.0861646011 0.0661419556
      0.0567947105 0.273172736 0.256124616 0.196834907 0.16461201
      0.0874233022 0.0506871007 0.0527406745 0.0886277035 0.065271534
      0.273172736 0.11774686 0.177206159 0.0953169167 0.0681088567
      0.108746134 0.054464899 0.0385957807 0.017945122 0.143512115
      0.260162234 0.273172736 0.273172736 0.213809147 0.134930208
      0.076524213 0.0545743071 0.00326529634 0.194839269 0.161765695
      0.273172736 0.273172736 0.273172736 0.0947600305 0.050446257
      0.0727210566 0.0740430206 0.252391517 0.0402560793 0.155823737
      0.0654676482 0.100694932 0.15835844 0.0706947967 0.068073526
      0.113559894 0.252391517 0.0238057207 0.23318769 0.167893097
      0.174283609 0.252391517 0.134147063 0.0434115604 0.0151856728
      0.194800198 0.0657398775 0.219733953 0.202218667 0.252391517
      0.252391517 0.21388413 0.0750607848 0.0969667807 0.233136982
      0.0563291088 0.240770221 0.252391517 0.252391517 0.14802973
      0.0798412487 0.102391787 0.055326771 0.212233886 0.0382533632
      0.184427544 0.159953102 0.163434237 0.0964668617 0.070029445
      0.124732681 0.0623929277 0.243205816 0.192537695 0.215263397
      0.147751346 0.14728716 0.230809897 0.0909146741 0.0869191363
      0.0989127159 0.185119614 0.0643505454 0.243205816 0.243205816
      0.243205816 0.220841542 0.0678975061 0.154930145 0.0829711184
      0.243205816 0.126048833 0.230018273 0.192560628 0.243205816
      0.0284210257 0.0349197984 0.162490457 0.278242707 0.278242707
      0.2457297 0.160829842 0.0970296934 0.073815532 0.0494309627
      0.0181385819 0.137672544 0.264959782 0.278242707 0.100758083
      0.0542351119 0.0360668227 0.057142064 0.110741816 0.127986446
      0.271738857 0.181904987 0.278242707 0.162669659 0.141798452
      0.105402701 0.180327177 0.184693784 0.13348262 0.188957945
      0.10870456 0.278242707 0.115751572 0.0749437436 0.079186596
      0.143121168 0.108216234 0.0290203001 0.085379146 0.0461383201
      0.262698025 0.0594006777 0.0706835166 0.104000725 0.125491992
      0.112937748 0.0720775574 0.0938375741 0.0211957078 0.218640178
      0.0489795692 0.066233255 0.121036798 0.125934735 0.262698025
      0.201973617 0.178061485 0.0263568424 0.262698025 0.0936632976
      0.101563223 0.198869109 0.262698025 0.262698025 0.262698025
      0.204325929 0.0647817701 0.262698025 0.110917501 0.129766569
      0.262698025 0.262698025 0.115778282 0.129975468 0.144250169
      0.0342669934 0.100026332 0.0335241072 0.0597529933 0.0715587884
      0.107106276 0.263539881 0.251634747 0.21917899 0.0276319012
      0.0860428885 0.0255399719 0.0906103551 0.105791993 0.263539881
      0.162666753 0.249823213 0.192553744 0.094900921 0.218699828
      0.109573804 0.144966558 0.159256905 0.157233194 0.263539881
      0.257610321 0.209531024 0.0699409172 0.252055079 0.0753620565
      0.166610032 0.135573238 0.263539881</_>
    <_>
      0.112919234 0.208906442 0.218401149 0.0911073834 0.197839335
      0.083616659 0.0549673997 0.0269011315 0.0346050635 0.137848347
      0.281901568 0.281901568 0.278017402 0.150420994 0.0306127034
      0.0356255621 0.00708551379 0.0301251654 0.037114501 0.1802665
      0.281901568 0.277189583 0.271967977 0.113914609 0.039291326
      0.00686746649 0.00928180013 0.0140270106 0.173627377 0.281901568
      0.281901568 0.281901568 0.0488738865 0.0509071946 0.0117373811
      0.00543782534 0.0691291466 0.26118952 0.26118952 0.222748041
      0.156578943 0.130169705 0.0893364102 0.0318244062 0.0458643213
      0.0550354123 0.123852044 0.169425145 0.092465803 0.26118952
      0.247340918 0.26118952 0.244250461 0.142993629 0.0206461772
      0.11634957 0.219152957 0.246349484 0.26118952 0.154479355
      0.124572895 0.0535760485 0.0200436767 0.0679949671 0.129679784
      0.0898843557 0.0805560723 0.26118952 0.223349199 0.155462816
      0.0735860765 0.0582994223 0.0476226732 0.010091057 0.017911518
      0.0175438114 0.265832484 0.167477012 0.236776188 0.267619699
      0.149097785 0.0904095098 0.0256573278 0.114594117 0.196795821
      0.267619699 0.267619699 0.194651976 0.231096715 0.177005246
      0.047746636 0.0643868744 0.0279621314 0.024983706 0.267619699
      0.16264455 0.138764679 0.112073198 0.0580494739 0.0679583773
      0.0889423415 0.0680246651 0.108676977 0.267619699 0.267619699
      0.20619531 0.235401109 0.0889408961 0.0480303355 0.037522383
      0.0378306732 0.0890045092 0.269001275 0.269001275 0.136022389
      0.0801516101 0.073115997 0.171875313 0.269001275 0.269001275
      0.269001275 0.269001275 0.269001275 0.195260927 0.123349264
      0.145280838 0.068046771 0.0563340709 0.0252971388 0.0302185416
      0.0784958005 0.179856747 0.0888145939 0.120213784 0.0977277756
      0.203275442 0.269001275 0.251334935 0.110900737 0.0370934792
      0.131764919 0.0912752151 0.138012215 0.168600351 0.0956468657
      0.293027073 0.346429497 0.346429497 0.127805173 0.0543797165
      0.0551598743 0.0402877368 0.0556958281 0.0116858836 0.0676673427
      0.346429497 0.346429497 0.111382954 0.0402452722 0.0236193687
      0.0222839415 0.0142977824 0.11262431 0.225769922 0.346429497
      0.312155575 0.0645755157 0.0567568541 0.0560938716 0.0727577358
      0.0582092516 0.0196190886 0.0313542783 0.139196426 0.184604019
      0.108785711 0.0496800952 0.041476015 0.0505836867 0.026045993
      0.0743662491 0.119532861 0.247084007 0.257826835 0.257826835
      0.221824482 0.163423136 0.108307123 0.111393198 0.210047632
      0.190856129 0.187550619 0.0843850225 0.150503755 0.0874194726
      0.123721361 0.151462257 0.248837382 0.0602158234 0.126206115
      0.245273784 0.257826835 0.257826835 0.0755513534 0.0771924034
      0.0657212585 0.0716961846 0.109337531 0.130033746 0.132887036
      0.161718011 0.257826835 0.0990772322 0.14801383 0.101801701
      0.123380743 0.135038659 0.105616979 0.174186572 0.104076974
      0.1478156 0.0470436066 0.0493241511 0.0615782328 0.132187471
      0.055786442 0.0471882634 0.200462773 0.349004269 0.349004269
      0.140601516 0.0276945736 0.0140161375 0.0513737351 0.0595036075
      0.046036195 0.0771541148 0.101969078 0.349004269 0.157890126
      0.147926614 0.0715336651 0.0641213432 0.0258702058 0.0175078604
      0.0640711337 0.323046088 0.349004269 0.349004269 0.10370554
      0.0335305519 0.0300606731 0.0574259907 0.209493533 0.265905976
      0.263567328 0.265905976 0.0648016408 0.05099722 0.0290807392
      0.033839196 0.0805705041 0.265905976 0.240077689 0.228660166
      0.265905976 0.0284776185 0.0910296962 0.0592218004 0.0467050895
      0.0535675623 0.131932423 0.223287374 0.265905976 0.265905976
      0.0325260535 0.0650258958 0.0527455434 0.0484772399 0.105346948
      0.22477527 0.224094018 0.141217411 0.265905976 0.0294489395
      0.134131625 0.0994154885 0.0684185922 0.109375507 0.256450117
      0.18432951 0.207454026 0.256450117 0.0680441409 0.0827404633
      0.0767813176 0.0667309836 0.148419961 0.23360543 0.185311213
      0.133182779 0.256450117 0.0860836282 0.123673163 0.0864690244
      0.119746096 0.14779374 0.252427518 0.223364085 0.207595706
      0.256450117 0.0303358268 0.0819899887 0.0696055591 0.0928798467
      0.160827696 0.163592964 0.229819909 0.15205422 0.256450117
      0.0503140986 0.121201828 0.112146273 0.163015708 0.19699958
      0.13677308 0.0632419065 0.0270726848 0.189624339 0.0909900367
      0.156517193 0.141329452 0.203030646 0.235189989 0.201694295
      0.0730536506 0.0448446088 0.205612034 0.169651389 0.22012797
      0.222520113 0.235189989 0.235189989 0.130594909 0.0778136849
      0.0248396769 0.223444551 0.0559937432 0.13403295 0.140753046
      0.235189989 0.235189989 0.182353422 0.0713619888 0.0154087851
      0.142493844 0.128418997 0.160846725 0.201770946 0.235189989
      0.235671163 0.22915788 0.0992035344 0.076338008 0.104605518
      0.13049908 0.196502164 0.231412575 0.223431662 0.24080725
      0.24080725 0.24080725 0.162472188 0.0693537295 0.127302274
      0.193749338 0.24080725 0.24080725 0.134150133 0.105315104
      0.047253415 0.0338413194 0.0970786065 0.175764784 0.183444887
      0.135879755 0.137688667 0.0751552805 0.0687924698 0.0690326616
      0.0430043973 0.223748952 0.18534629 0.226026505 0.161694974
      0.0801024735 0.115567006 0.199995846 0.174803302 0.171887949
      0.113280095 0.23476994 0.236705288 0.236705288 0.114992745
      0.173393473 0.11686971 0.132845297 0.155385867 0.136630386
      0.195015758 0.214567676 0.236705288 0.222866654 0.0514245145
      0.0163848139 0.034874063 0.0125576034 0.173514426 0.138113603
      0.236705288 0.236705288 0.0970240086 0.203655586 0.0574577376
      0.0462435186 0.0359007083 0.0650285184 0.10461688 0.236705288
      0.215905309 0.236705288 0.189596072 0.195210755 0.26020968
      0.26020968 0.26020968 0.0435041972 0.0511523895 0.054198999
      0.193569034 0.0948439911 0.0717726871 0.133405119 0.26020968
      0.26020968 0.126901656 0.0968448669 0.040103808 0.0903498307
      0.26020968 0.142588452 0.15874815 0.155510619 0.117533877
      0.04138669 0.124363393 0.0841644257 0.26020968 0.135148674
      0.0845205858 0.168993071 0.176886469 0.26020968 0.130483165
      0.169465169 0.109100357 0.137341604 0.0231835786 0.0111228693
      0.0357934535 0.0884660706 0.332447052 0.237507448 0.0923261344
      0.0259298906 0.0248260964 0.0339105651 0.015004009 0.0297439508
      0.137962118 0.332447052 0.332447052 0.121280335 0.043912515
      0.0403754748 0.0511082709 0.0194922425 0.0516766943 0.123017684
      0.332447052 0.262634218 0.133242145 0.0467159562 0.0515213832
      0.145883307 0.158642322 0.0484983027 0.147941589 0.332447052
      0.332447052 0.158992425 0.0641987845 0.0744924396 0.0161381643
      0.0811347142 0.243071914 0.321498811 0.321498811 0.00840677973
      0.0154801197 0.0147074219 0.0137712359 0.0449071601 0.0863297433
      0.223490432 0.190463394 0.321498811 0.0571417436 0.0749110729
      0.0598026887 0.0381717458 0.017660778 0.0723730028 0.198146373
      0.321498811 0.321498811 0.00737347268 0.00446975557 0.00240148092
      0.0112998933 0.067209594 0.123072386 0.237276405 0.243142217
      0.321498811 0.0730165541 0.07026048 0.0752987936 0.0658138171
      0.0897809193 0.0842542872 0.185833707 0.204050347 0.27616635
      0.0904197916 0.172464177 0.0958530828 0.0847490057 0.122429766
      0.0803604871 0.162442416 0.0705624744 0.24734129 0.0878398195
      0.27616635 0.256768256 0.165649414 0.11016234 0.0911613107
      0.160903141 0.095637314 0.27616635 0.119550578 0.204347402
      0.154703274 0.120301045 0.13649486 0.0519600213 0.122675508
      0.00464558089 0.275996566 0.0484448485 0.27616635 0.20986852
      0.150222138 0.163063511 0.150233015 0.0685101971 0.00797240343
      0.169647738 0.0645317212 0.251592606 0.251592606 0.190781936
      0.250144511 0.167217046 0.0850150362 0.00277163042 0.108966641
      0.0468440279 0.196950153 0.251592606 0.251592606 0.119396001
      0.0696276948 0.0822620243 0. 0.184272557 0.0424646176 0.251592606
      0.251592606 0.132231414 0.202516511 0.0717710182 0.117104977
      0.00403102068 0.251592606 0.0526144318 0.251592606 0.175965205
      0.210874543 0.173167244 0.142679706 0.0810351074 0.0051525007
      0.141017154 0.145074606 0.212856278 0.166363671 0.180484205
      0.114894152 0.159544721 0.0634733364 0.00416367687 0.270833313
      0.214612335 0.25513652 0.0930555686 0.0927481502 0.22631675
      0.115984723 0.180875927 0.00806116499 0.270833313 0.031675607
      0.20428054 0.0824309364 0.217606559 0.215258807 0.188122645
      0.121467121 0.001860269 0.270833313 0.109151706 0.246955723
      0.0684341341 0.185184449 0.104680836 0.0461870134 0.0375975631
      0.00826493837 0.279226154 0.0999592617 0.253227234 0.113808922
      0.112698168 0.236679584 0.0481912382 0.0633135214 0.0328995809
      0.199853733 0.0817095488 0.279226154 0.152625293 0.268560827
      0.279226154 0.0887732357 0.0498129912 0.00171591388 0.279226154
      0.058224082 0.127827317 0.0351462699 0.279226154 0.279226154
      0.165782899 0.122838318 0.0156238684 0.189052358 0.0261375122
      0.12568976 0.0725205988 0.279226154 0.226083472 0.085505344
      0.107902721 0.0410439931 0.147263765 0.0265824702 0.10539484
      0.0679048896 0.219377413 0.165105492 0.0917349383 0.125637665
      0.0693849176 0.232804224 0.110574163 0.202179387 0.169192567
      0.160906449 0.269009471 0.159986377 0.135968059 0.0239935201
      0.156995445 0.0187018737 0.0965252593 0.172592744 0.269009471
      0.269009471 0.116553955 0.117616192 0.0449331403 0.269009471
      0.110044934 0.191632152 0.269009471 0.269009471 0.074549675
      0.026839707 0.0289202854 0.0464589559 0.195408717 0.209977403
      0.179189995 0.106144436 0.0920799375 0.247989938 0.247989938
      0.0883748531 0.0497386903 0.227703169 0.247989938 0.145764112
      0.122658439 0.168137014 0.130847916 0.108275086 0.0875198022
      0.0848208889 0.214759365 0.0980934724 0.127122596 0.18669726
      0.232423112 0.247989938 0.247989938 0.247989938 0.161466226
      0.0801444277 0.0835408494 0.0949430391 0.209676087 0.247989938
      0.0220265239 0.069224596 0.229959369 0.339836776 0.339836776
      0.0277879965 0.0334291235 0.0240780152 0.0198337231 0.0388997383
      0.0993735939 0.229176179 0.162350982 0.339836776 0.0801536292
      0.0885472 0.0395438224 0.0369081162 0.028544182 0.0539236665
      0.230558231 0.277811199 0.339836776 0.0592287555 0.072222732
      0.0661996827 0.0331620686 0.0189615116 0.0426496677 0.121826254
      0.110809639 0.339836776 0.151514277 0.213168636 0.0648837164
      0.0225340966 0.0815533102 0.0688646734 0.141804323 0.0477559865
      0.341239542 0.0809761584 0.089654997 0.0542150401 0.0825409219
      0.17916815 0.0324644595 0.101391837 0.0534073971 0.341239542
      0.0488105603 0.161290422 0.0843297392 0.185003847 0.119967602
      0.111662678 0.124809384 0.0372338779 0.341239542 0.123489618
      0.18430759 0.0602328368 0.108792633 0.275406241 0.109901942
      0.174988687 0.148703009 0.341239542 0.112349011 0.105058312
      0.0905638486 0.275010794 0.130018741 0.016766062 0.0586177744
      0.0172790382 0.32375285 0.0699992478 0.196071729 0.0929544047
      0.137687027 0.101106584 0.0252733119 0.0873832256 0.0117625706
      0.338018268 0.121146686 0.215684459 0.0921206102 0.113368198
      0.187235832 0.0152566563 0.0477279052 0.0481102876 0.338018268
      0.202830762 0.0977474675 0.0536365733 0.194916889 0.107860073
      0.0226028226 0.0490261763 0.00534662278 0.338018268 0.338018268
      0.261081159 0.0926969498 0.137725785 0.127252311 0.0898829252
      0.13168779 0.0247011762 0.286408991 0.0547562651 0.18627651
      0.0796028599 0.141333759 0.151311517 0.155088216 0.0926603898
      0.0312309414 0.286408991 0.0497404113 0.157399863 0.0706781298
      0.14902547 0.133918464 0.169000968 0.123416901 0.0242378954
      0.286408991 0.156343982 0.235415876 0.14210251 0.199397489
      0.165874824 0.286408991 0.286408991 0.0853478163 0.286408991
      0.0216944646 0.0956412256 0.0987427756 0.177383348 0.191098616
      0.0847473741 0.061013557 0.0113019226 0.205073878 0.0190293714
      0.054720927 0.0367995612 0.183758527 0.271612793 0.202986687
      0.189349264 0.0588245168 0.149014428 0.00730907405 0.0327812321
      0.0444847085 0.259131491 0.180306241 0.271612793 0.271612793
      0.11492122 0.142665863 0.0047190967 0.0424911007 0.121799596
      0.179724053 0.271612793 0.271612793 0.271612793 0.236885816
      0.0651180595 0.0160799623 0.0551964305 0.194146082 0.19285877
      0.171672031 0.1673204 0.169054866 0.0828931406 0.0729515105
      0.0169918556 0.0665033609 0.127689585 0.203992441 0.219073147
      0.176166728 0.0994621366 0.0529222339 0.11026869 0.0612180755
      0.11812856 0.280811757 0.280811757 0.280811757 0.280811757
      0.280811757 0.139565334 0.0386185534 0.0290181488 0.0627698377
      0.107228123 0.1137418 0.280811757 0.280811757 0.161482349
      0.0710428134 0.0358026326 0.0452615842 0.0658623874 0.155270174
      0.222863078 0.141966119 0.188911468 0.114961162 0.0740113482
      0.0736520216 0.0327773169 0.045786988 0.15957658 0.238787308
      0.10708563 0.308127373 0.308127373 0.212201968 0.0447503291
      0.0118932594 0.0325980559 0.0882204324 0.134335801 0.308127373
      0.308127373 0.181493849 0.0588989481 0.0151892388 0.0126494225
      0.0214362461 0.0804399624 0.152247593 0.284512877 0.308127373
      0.308127373 0.136846229 0.0227736887 8.95232733e-05 0.016891174
      0.0316511802 0.087914601 0.0260032434 0.0263257921 0.148246273
      0.195426881 0.357764721 0.0869398043 0.0809030682 0.0356440395
      0.0271660946 0.0348970406 0.035279803 0.0976629257 0.100635409
      0.357764721 0.114278719 0.1405572 0.0435362533 0.0352521762
      0.0463509187 0.0306649059 0.106632851 0.0304200221 0.357764721
      0.268903166 0.23872155 0.049447719 0.0468518473 0.0359385237
      0.0189551506 0.0590712763 0.0219081715 0.357764721 0.355053097
      0.246932387 0.0697506592 0.0431890748 0.139745772 0.113376178
      0.135746017 0.0125367232 0.334351003 0.0624720491 0.183254912
      0.0848713815 0.132358208 0.170172021 0.148672953 0.152214289
      0.0690169558 0.334351003 0.0850634575 0.194589615 0.14426133
      0.166231453 0.07210619 0.0681581274 0.141376451 0.0205052979
      0.334351003 0.100641698 0.186963335 0.0759709924 0.0737941563
      0.090817377 0.205182448 0.264457881 0.077157855 0.334351003
      0.0891073644 0.174065843 0.0892547891 0.0691726953 0.0811871439
      0.0690211877 0.0640113428 0.0400600731 0.322381228 0.128558472
      0.0884005129 0.0822013989 0.0839510486 0.105820164 0.0591342933
      0.114052616 0.024747137 0.322381228 0.27914238 0.202933222
      0.0619067103 0.116191737 0.0510499813 0.153836519 0.269902021
      0.143314123 0.322381228 0.0586156622 0.0452764891 0.0420309454
      0.0385067128 0.122367918 0.182610676 0.322381228 0.243600994
      0.322381228 0.0542309023 0.0643559694 0.0227604043 0.116275355
      0.115966149 0.0934890136 0.122308388 0.0537510999 0.268507481
      0.102358885 0.133790717 0.0616843812 0.140003219 0.0771119595
      0.249287531 0.275044292 0.167637587 0.275044292 0.0124909589
      0.0408307761 0.0335054249 0.0748770609 0.149937138 0.155009806
      0.261682659 0.205357105 0.275044292 0.0852361768 0.111330941
      0.0448101647 0.160791427 0.0860094801 0.18407701 0.275044292
      0.275044292 0.275044292 0.103824005 0.0957561135 0.033416342
      0.0875574648 0.065843299 0.221581489 0.270648003 0.208768964
      0.107529365 0.00605553342 0.0208174083 0.0589559004 0.0664602891
      0.175831705 0.270648003 0.270648003 0.270648003 0.120703623
      0.00636688573 0.0225241166 0.106050022 0.129531786 0.0397151895
      0.147748485 0.270648003 0.270648003 0.270648003 0.0626039505
      0.0585834943 0.0181612149 0.0288877692 0.0808663741 0.163995102
      0.270648003 0.270648003 0.270648003 0.0320619978 0.0423710085
      0.0247544367 0.07068827 0.255701154 0.275073797 0.208156377
      0.160465404 0.092958726 0.0182985123 0.0171118043 0.0331958793
      0.0773003176 0.276065677 0.276065677 0.251271397 0.0854657963
      0.0278372299 0.0229753647 0.0198112484 0.0387376994 0.116340898
      0.0775422081 0.20289512 0.276065677 0.276065677 0.219477296
      0.0549619794 0.0165214241 0.00926322769 0.0385979265 0.145938009
      0.276065677 0.276065677 0.276065677 0.0787870288 0.0849883407
      0.028834844 0.0594955422 0.103879459 0.250859112 0.298553944
      0.22481513 0.0364004374 0.00169987802 0.00258002523 0.00575941056
      0.0213407073 0.0378612354 0.184017166 0.339268327 0.339268327
      0.0530442186 0.00143222697 0. 0.00230099959 0.00599207217
      0.0315000899 0.0735875368 0.339268327 0.339268327 0.106625155
      0.00648539746 0.0141335344 0.00815899018 0.0382254459 0.0389729701
      0.0944698527 0.339268327 0.339268327 0.176964298 0.00383318355
      0.000195543544 0.00110624637 0.00876387581 0.0448480919
      0.0751537904 0.0249780249 0.0720620304 0.0113920914 0.272483379
      0.151269987 0.119854778 0.0450812355 0.0848417357 0.0814809501
      0.0153025184 0.0340157486 0.0262808315 0.29004702 0.268823832
      0.204485238 0.124784566 0.12551935 0.29004702 0.0227359813
      0.0412111878 0.0182687957 0.225864023 0.0635616928 0.0753151849
      0.11105188 0.29004702 0.29004702 0.025346851 0.0303884745
      0.0521778353 0.29004702 0.131916925 0.156408295 0.29004702
      0.29004702 0.0757956728 0.0742716193 0.103697449 0.0844204277
      0.248281151 0.0920960233 0.121758938 0.0852332711 0.0898989514
      0.0840279311 0.178427875 0.242970824 0.118773177 0.248281151
      0.0206977017 0.0366793834 0.10759078 0.0773127303 0.238222972
      0.116834305 0.135289475 0.248281151 0.200896919 0.074666813
      0.148954332 0.248281151 0.248281151 0.164175108 0.220144972
      0.248281151 0.248281151 0.155922309 0.0350650065 0.136861011
      0.248281151 0.169394985 0.0797714144 0.12462572 0.219639286
      0.096733354 0.258731842 0.0202436466 0.0412308946 0.0939712375
      0.0710954517 0.092626363 0.125595927 0.236711621 0.157815546
      0.258731842 0.0278147794 0.0856458321 0.0594583713 0.0646241829
      0.205172285 0.226691529 0.189090207 0.0840425566 0.175808936
      0.0543758459 0.194753587 0.245706335 0.144108266 0.258731842
      0.258731842 0.149990454 0.0403595194 0.258731842 0.0643781647
      0.1994192 0.250290424 0.16180855 0.101042286 0.102403425
      0.134165823 0.129517853 0.268819273 0.0538671538 0.0793458074
      0.0361329652 0.0707203224 0.0818383321 0.116451785 0.200254798
      0.268819273 0.268819273 0.0830798075 0.0543151088 0.016728634
      0.0533910953 0.266161829 0.215428934 0.130854681 0.0689855739
      0.268819273 0.0579810217 0.119808763 0.212934777 0.17424868
      0.200452611 0.151703298 0.268819273 0.268819273 0.268819273
      0.0967077836 0.0581519566 0.112385228 0.161352873 0.0257320795
      0.0958051309 0.250201017 0.251071334 0.224187016 0.0545733385
      0.0238979794 0.00425749924 0.0155917769 0.0882983431 0.26270014
      0.277673215 0.256655991 0.169900388 0.0208671782 0.0137079675
      0.00375333079 0.029345898 0.037457101 0.119676605 0.277673215
      0.277673215 0.277673215 0.0576744825 0.0202855095 0.0204989929
      0.0320547037 0.170185775 0.277673215 0.277673215 0.277673215
      0.207541659 0.0126455147 0.00349812442 0.0197270457 0.0374928713
      0.0641409084 0.219513878 0.301497698 0.176976964 0.0932956785
      0.0155113032 0.00442800112 0.00164923654 0.00940574799
      0.0777925104 0.294352442 0.301497698 0.19882153 0.0613906719
      0.0617250763 0.017002156 0.00959725399 0.0124958195 0.121864624
      0.296969444 0.301497698 0.301497698 0.0597822852 0.00296245585
      0.0044368892 0.00889714994 0.0138963414 0.12281248 0.301497698
      0.301497698 0.301497698 0.0606320128 0.0339431763 0.0255630277
      0.0131289214 0.00312902662 0.0183682088 0.196160898 0.276221722
      0.0987195745 0.0095702298 0.01540324 0.00481377356 0.00403338671
      0.00430686725 0.0286353696 0.393920094 0.393920094 0.173282608
      0.00514121028 0.000408579624 0.000291712407 0.00090728607
      0.018254023 0.0191343706 0.181295484 0.393920094 0.201044887
      0.0150592271 0.00998250116 0.00573985744 0.00128270278
      0.000265789771 0.02286979 0.289870173 0.393920094 0.245246634
      0.00316836755 0.000317784143 0.000155359434 0.000331010116
      0.0141178621 0.266772121 0.0175585337 0.0302058589 0.00642521493
      0.102213703 0.0524474531 0.231518075 0.127287194 0.266772121
      0.266772121 0.0641734824 0.107988745 0.0949586779 0.266772121
      0.111100495 0.143323004 0.262003571 0.266772121 0.131040692
      0.0527197719 0.0391825773 0.0216166917 0.232719645 0.133961573
      0.266772121 0.149004087 0.137021482 0.151911363 0.178489715
      0.175463855 0.140301377 0.266772121 0.123673014 0.121809237
      0.0418902375 0.12744388 0.147094876 0.0851910189 0.150362059
      0.222195759 0.251223743 0.0997613966 0.145983428 0.251223743
      0.207790136 0.100866124 0.0968822166 0.166080624 0.239147499
      0.20257175 0.104079381 0.251223743 0.24397254 0.115610331
      0.100676142 0.0802014023 0.133017853 0.108067818 0.251223743
      0.152075976 0.185936615 0.062678203 0.0957073718 0.0824570581
      0.0187494811 0.0726354942 0.0534545518 0.251223743 0.159051344
      0.251223743 0.209820047 0.114324659 0.105912879 0.117871709
      0.136565343 0.0676587448 0.132488474 0.105380967 0.24753502
      0.20078145 0.094001472 0.214726061 0.24753502 0.196724623
      0.0963183492 0.0972917527 0.0539525114 0.168826759 0.213269189
      0.14439179 0.0588335283 0.0327628031 0.0882970765 0.0773511082
      0.24753502 0.13556242 0.24753502 0.242523864 0.120655604
      0.152274355 0.156922922 0.233644426 0.24753502 0.24753502
      0.132932246 0.157778129 0.154374823 0.153541982 0.131679788
      0.156020984 0.113743559 0.157217801 0.148708791 0.0513274856
      0.0833217055 0.167256311 0.112513676 0.0780032501 0.0608421713
      0.176568106 0.302458018 0.302458018 0.175331965 0.122386366
      0.103172339 0.0911327153 0.0957548097 0.128757328 0.19555755
      0.302458018 0.23222439 0.0798981562 0.0784212798 0.0532813035
      0.0578856766 0.0395875461 0.129038379 0.302458018 0.302458018
      0.302458018 0.141654253 0.118716031 0.0393488482 0.0151866376
      0.0101613449 0.0233962871 0.163413629 0.300935358 0.272832155
      0.0865077227 0.0458548293 0.0131326867 0.0122203389 0.0412168875
      0.128492832 0.300935358 0.300935358 0.185850784 0.0177804288
      0.00578949088 0.00842193607 0.0114686089 0.0100609986 0.109388277
      0.300935358 0.300935358 0.272236079 0.0574930795 0.0377497338
      0.00783293601 0.000900540617 0.0280765798 0.300935358 0.300935358
      0.300935358 0.124646358 0.010906959 0.00544161582 0.00695503782 0.
      0.0219983142 0.104908444 0.213635013 0.272206813 0.0346715227
      0.000718375377 0.00155611092 0.00318876072 0.00350144063
      0.0168981273 0.127246857 0.355803311 0.355803311 0.0302744508
      0.00338156358 0.00674314704 0.00470543886 0.00106383383
      0.0136699891 0.28177923 0.355803311 0.298392236 0.0407450385 0.
      0.00019572016 0.000867053692 0. 0.00430328632 0.159235626
      0.355803311 0.355803311 0.133545935 0.00658273604 0. 0. 0.
      0.00364680681 0.0743464604 0.342795461 0.342795461 0.0266813021
      0.00170967833 0.00174733356 0.000716701674 0.000145595011
      0.0113594234 0.0845973119 0.342795461 0.280458242 0.0276108962
      0.00461702794 0.00157435692 0.00172014395 0.00980783813
      0.000149765357 0.0273149777 0.342795461 0.342795461 0.20594418
      0.0400070623 0.0088829929 0.000597340695 0.000205260745
      0.0263988916 0.0458858907 0.33658427 0.333723158 0.181383535
      0.0823882967 0.0537137687 0.0141438739 0.0294920485</_>
    <_>
      0.0542039797 0.19136779 0.285966188 0.285966188 0.264836937
      0.0371445045 0.00772602158 0.00112603814 0.0112521006 0.030849494
      0.138481304 0.285966188 0.285966188 0.285966188 0.0496694185
      0.035694059 0.0111347465 0.0074505615 0.0294422135 0.109411061
      0.283469439 0.285966188 0.285966188 0.0062398403 0.0339380167
      0.0105638104 0.00830689166 0.0637548566 0.106167629 0.239622951
      0.147117734 0.285966188 0.0769338012 0.0997156501 0.027064411
      0.0453507863 0.0103193875 0.0205023419 0.145641461 0.290162534
      0.290162534 0.198072493 0.0944746956 0.0252931844 0.0103193875
      0.0581061691 0.00465481635 0.0321970209 0.135187209 0.290162534
      0.252708137 0.241055325 0.0791130811 0.0618200004 0.07286001
      0.0359018818 0.0719579458 0.0759869665 0.290162534 0.290162534
      0.236840114 0.0512143634 0.0647209808 0.11044459 0.0716058016
      0.0460003838 0.0168999266 0.239200547 0.290162534 0.290162534
      0.128824815 0.0913440958 0.104507312 0.0152587499 0.0149227483
      0.0310445484 0.258633107 0.140911356 0.197969779 0.0934900641
      0.127966136 0.213229448 0.134569824 0.036577411 0.170685157
      0.258633107 0.258633107 0.258633107 0.22127834 0.258633107
      0.144206926 0.0826528668 0.0552982837 0.00671561761 0.110038258
      0.150955558 0.181939453 0.157989338 0.161721259 0.22646983
      0.244690776 0.0888213813 0.0807462037 0.158036768 0.108923621
      0.103039928 0.183525458 0.258633107 0.27505812 0.243454233
      0.161607891 0.0706778169 0.202006221 0.239521086 0.181320176
      0.216386274 0.27505812 0.27505812 0.27505812 0.27505812
      0.191983208 0.171749637 0.089061439 0.123714417 0.187842697
      0.27505812 0.120215893 0.111486696 0.0765767023 0.040559303
      0.0702487752 0.056538891 0.0628629625 0.0693121552 0.117420033
      0.0962223932 0.050458245 0.0987364873 0.0246134065 0.0631248727
      0.0569576174 0.147165 0.14668335 0.112006672 0.159217924
      0.208958283 0.248473153 0.248473153 0.22095716 0.127800524
      0.153304711 0.166365936 0.153346211 0.156931072 0.144691586
      0.248473153 0.248473153 0.193614841 0.0680479407 0.0757352039
      0.0915524736 0.139502957 0.146111965 0.0515755266 0.0714287758
      0.025625553 0.0830192938 0.0961610824 0.218847468 0.219107136
      0.217030928 0.2299072 0.12655139 0.176023096 0.173575968
      0.0628946498 0.0364752896 0.107767664 0.151336744 0.248473153
      0.177764416 0.19362931 0.237877131 0.232424498 0.237877131
      0.0308490004 0.0348497033 0.0433674045 0.123663031 0.222556621
      0.105994292 0.0880990103 0.0437171832 0.237877131 0.106366426
      0.0586325526 0.108251482 0.202452272 0.237877131 0.180965692
      0.23236829 0.226886645 0.113403633 0.0417657606 0.0527437069
      0.140031978 0.237877131 0.185359359 0.0663544312 0.0472295657
      0.0252419617 0.237877131 0.20706141 0.134549201 0.237877131
      0.208210632 0.0397097282 0.0145151243 0.0367051288 0.0910865888
      0.290445805 0.163411006 0.0780655667 0.0654268488 0.0411990806
      0.0310546011 0.00973828789 0.023345802 0.222928748 0.290445805
      0.290445805 0.286027253 0.0785757303 0.0293537714 0.0673915744
      0.011392395 0.0148449512 0.0221866854 0.256455839 0.211665168
      0.164577499 0.209501639 0.0812022239 0.155467615 0.0884253383
      0.00873969123 0.0252744686 0.237055346 0.266619384 0.290445805
      0.290445805 0.177302048 0.0731141642 0.135959625 0.226619139
      0.314156502 0.314156502 0.0169230513 0.037077155 0.00962573383
      0.0204431117 0.192348525 0.183339313 0.14974533 0.0665000454
      0.314156502 0.0837291256 0.0994132087 0.0245346874 0.123426087
      0.0651660487 0.135790497 0.314156502 0.314156502 0.314156502
      0.00769229606 0.00751928333 0.00125607674 0.0211290382 0.161688581
      0.147991762 0.0929826871 0.073414363 0.314156502 0.0371567681
      0.0277937185 0.00689506577 0.104522966 0.19456394 0.09668383
      0.0378776714 0.0112342145 0.256621331 0.209560886 0.152994007
      0.0329411179 0.159917295 0.229546338 0.203880042 0.066843383 0.
      0.256621331 0.256621331 0.253825277 0.128101319 0.154183626
      0.192403808 0.0692321658 0.0240045898 0.00855234358 0.256621331
      0.0979299024 0.075097315 0.0245875325 0.168658674 0.256621331
      0.118877016 0.0324703977 0.00317230076 0.256621331 0.127862424
      0.250923634 0.15786919 0.223728433 0.180793732 0.167579085
      0.133097187 0.00699960534 0.199025214 0.150256172 0.179083958
      0.180668682 0.167743027 0.183422461 0.216097295 0.181788355
      0.0683307946 0.240042716 0.104180351 0.145215034 0.151261404
      0.200070828 0.181971103 0.0656356364 0.0538680628 0.00297385384
      0.179752499 0.100053139 0.240042716 0.219808355 0.186954573
      0.149790764 0.053368628 0.0831295922 0.0362554006 0.240042716
      0.181029081 0.240042716 0.240042716 0.175547481 0.155494288
      0.171485856 0.158749402 0.0752161369 0.197650731 0.0811690688
      0.236324131 0.124317572 0.150096148 0.19806686 0.0712454394
      0.112101652 0.0152741848 0.184636682 0.0850068182 0.244728833
      0.183799386 0.200423345 0.127569675 0.0957997367 0.155002803
      0.0775985569 0.244728833 0.211712971 0.22269395 0.164125398
      0.137685597 0.243259266 0.151466712 0.152729258 0.0328225009
      0.168860659 0.0709204152 0.229891747 0.185858414 0.241239548
      0.226034984 0.0583059043 0.0442103185 0.000961878279 0.14680329
      0.0880158097 0.205383033 0.156810105 0.245999038 0.250477642
      0.23372604 0.116903603 0.0746150315 0.119193472 0.0545342341
      0.131466836 0.187370121 0.250477642 0.231108561 0.0733998194
      0.0527144894 0.00153707713 0.0959153622 0.0544634052 0.165817052
      0.143654108 0.244706631 0.250477642 0.241867095 0.192552105
      0.171972111 0.220605507 0.0598396212 0.12422175 0.124446236
      0.250477642 0.249297485 0.169861674 0.0651686862 0.0586121678
      0.0706208423 0.0476029068 0.0663933456 0.176843867 0.249297485
      0.187300086 0.0787853897 0.0488667004 0.0132782422 0.156069994
      0.0996653661 0.148900002 0.249297485 0.221238166 0.249297485
      0.216302842 0.123250343 0.164199889 0.123258971 0.0168783944
      0.0979881436 0.20855996 0.237206846 0.249297485 0.230962932
      0.133396775 0.0484822579 0.0660957024 0.0108915847 0.204872802
      0.249297485 0.249297485 0.12556541 0.0726495162 0.0903768688
      0.0145014124 0.130237594 0.0778933838 0.130083874 0.211599305
      0.115431696 0.259049028 0.15820165 0.0681668967 0.00772038614
      0.0439772494 0.0495891944 0.259049028 0.259049028 0.259049028
      0.225961685 0.259049028 0.259049028 0.0756340325 0.0490999557
      0.00326096243 0.0779780522 0.148457885 0.140164763 0.259049028
      0.259049028 0.259049028 0.0958604217 0.0189686194 0.00710691093
      0.128282174 0.200470835 0.242161617 0.0141862901 0.0386199914
      0.212760612 0.229648799 0.43763873 0.00264441664 0.00617576297
      0.00163180078 0.0126783755 0.0209617764 0.0129283369 0.0386474989
      0.0571894161 0.43763873 0.0111674061 0.0103670638 0.00257011503
      0.0190230273 0.0507643484 0.0092918342 0.0372974463 0.0194173232
      0.43763873 0.147838652 0.223524898 0.0720955655 0.0740390345
      0.0329553336 0.00529956818 0.00456581824 0.00812236313 0.43763873
      0.149689659 0.102977812 0.026306333 0.0424777865 0.0737369508
      0.010783691 0.0316374116 0.0294207074 0.338458359 0.0590049773
      0.0897931904 0.0282080788 0.0734104067 0.199028715 0.0610827468
      0.0546704084 0.0606635027 0.338458359 0.0907428488 0.273309231
      0.1443481 0.201451614 0.0991007015 0.0485447384 0.0377193317
      0.0335907936 0.338458359 0.0830309317 0.0694972202 0.0196230542
      0.0921981633 0.260136575 0.289165407 0.187319234 0.154257953
      0.338458359 0.0488818958 0.132344902 0.079882741 0.217010275
      0.169032007 0.059352465 0.0383344181 0.0442274325 0.2344971
      0.0437027328 0.252735555 0.146403775 0.172205746 0.161929101
      0.0359742939 0.0915682241 0.0349176228 0.272299379 0.208510906
      0.25917837 0.210144132 0.188349217 0.147889659 0.230013311
      0.219717324 0.11501354 0.272299379 0.00432394771 0.0878897384
      0.0454375744 0.115132391 0.124081559 0.222556055 0.272299379
      0.126368552 0.272299379 0.0661645234 0.0756088868 0.0566391088
      0.111171231 0.0878737494 0.0800440311 0.146944001 0.0490548946
      0.26358065 0.232472882 0.111913502 0.111256897 0.0970841125
      0.172099233 0.208143204 0.153618604 0.0216130614 0.160294846
      0.0719446465 0.158190772 0.177609071 0.165439606 0.100684315
      0.153348267 0.26358065 0.129570469 0.26358065 0.0765275061
      0.0956663042 0.140131056 0.0941032469 0.26358065 0.26358065
      0.17459099 0.0926054716 0.26358065 0.0216853414 0.158394411
      0.204047188 0.204954118 0.158663496 0.15572089 0.0785279348
      0.0170124713 0.0631854162 0.0365699977 0.115385816 0.112086274
      0.146875277 0.144236833 0.190436006 0.29188624 0.29188624
      0.169475436 0.0513840206 0.0672096536 0.0342969261 0.0976219624
      0.29188624 0.29188624 0.195789859 0.0621397533 0.077563405
      0.00911933929 0.0488868728 0.0516460575 0.199280754 0.225508958
      0.29188624 0.29188624 0.29188624 0.102639176 0.128891349
      0.0563230701 0.0185398366 0.117488876 0.178612545 0.198689103
      0.257649183 0.223911032 0.0758215412 0.0190231316 0.0397127904
      0.0727606714 0.107364617 0.257649183 0.257649183 0.230956569
      0.0648703203 0.0115671437 0.00639524776 0.0701607317 0.243525252
      0.257649183 0.112001054 0.242786422 0.257649183 0.257649183
      0.111962318 0.107973188 0.0777472705 0.0553965159 0.0526193343
      0.145983666 0.257649183 0.257649183 0.144666687 0.0578343756
      0.03674246 0.0619487092 0.13163273 0.150729686 0.1702694
      0.27277112 0.276433975 0.108184837 0.0100266617 0.00357912108
      0.0201406963 0.0835378841 0.139682934 0.276433975 0.276433975
      0.276433975 0.196552128 0.0132686701 0.0070350254 0.0270330943
      0.0311543588 0.121102385 0.091567494 0.276430011 0.276433975
      0.151185706 0.0454485528 0.0332989544 0.0470988527 0.0667936057
      0.0927889645 0.18018958 0.276433975 0.276433975 0.276433975
      0.14844422 0.0520803034 0.0332965925 0.0165551808 0.0621230118
      0.106148496 0.0615777224 0.0612381771 0.0597171374 0.277419269
      0.210530072 0.231850058 0.12516433 0.152193457 0.115506388
      0.076383017 0.0164414644 0.0225653443 0.277419269 0.277419269
      0.140890688 0.069318749 0.10884656 0.190173879 0.150369585
      0.0981082469 0.113591872 0.277419269 0.15566282 0.146388978
      0.144403011 0.206473365 0.18971929 0.12702696 0.0394916832
      0.0593778864 0.277419269 0.277419269 0.174387097 0.11996489
      0.165082067 0.192175999 0.0782278702 0.0321813524 0.00706303585
      0.277811378 0.0997992083 0.0865588337 0.0412583165 0.173519179
      0.277811378 0.197335035 0.150963202 0.0462807193 0.277811378
      0.0206572022 0.103244506 0.0711881071 0.277811378 0.166551456
      0.0631766394 0.0537207909 0.00787443854 0.277811378 0.171304151
      0.174661666 0.0802446604 0.151607543 0.259123653 0.184654921
      0.230483398 0.0427762084 0.277811378 0.0403889604 0.124815874
      0.0708947331 0.241528451 0.120060168 0.145945594 0.18129611
      0.0720266998 0.239960432 0.00621307548 0.0614192076 0.0318583921
      0.0888167173 0.118203849 0.211703628 0.239960432 0.173312813
      0.239960432 0.0303254165 0.0747009665 0.0920522958 0.0829603747
      0.143590733 0.230214372 0.239960432 0.145965844 0.239960432
      0.00282412511 0.09013322 0.120667644 0.11115431 0.239960432
      0.22929129 0.218850061 0.232888997 0.218571395 0.0382815115
      0.162175372 0.228665635 0.206012636 0.113769889 0.162225977
      0.220964894 0.124975331 0.239649415 0.0128107639 0.0733872354
      0.164891228 0.094880417 0.237762049 0.251733392 0.217974782
      0.166888922 0.251733392 0.00106888846 0.0534679666 0.110659204
      0.111339808 0.14379701 0.180132776 0.251733392 0.173217177
      0.183479846 0.0414203964 0.112482905 0.156198919 0.12094304
      0.155606553 0.251733392 0.251733392 0.251733392 0.225634068
      0.0107015688 0.0502131395 0.0548031554 0.0635513067 0.227191985
      0.263124049 0.227422386 0.0920073241 0.118688688 0. 0.00533728115
      0.010064479 0.089165464 0.182016581 0.263124049 0.263124049
      0.23075369 0.12923196 0.0434612818 0.0466697365 0.0190284606
      0.0673888177 0.150095284 0.263124049 0.263124049 0.178468421
      0.180963084 0. 0.00613783114 0.00824098289 0.0572038554
      0.190697566 0.263124049 0.263124049 0.263124049 0.246557713
      0.00543205487 0.019626718 0.0280030072 0.0928323567 0.090365544
      0.289737463 0.299040169 0.159986272 0.0971515924 0.0441501886
      0.0608135089 0.0344657712 0.0434636995 0.123835988 0.299040169
      0.299040169 0.129763737 0.0541412085 0.0246897079 0.0393422768
      0.0380713381 0.0441230498 0.147672042 0.299040169 0.299040169
      0.281102061 0.0748145282 0.00469528791 0.0186635554 0.0257303398
      0.0669052452 0.209494144 0.299040169 0.299040169 0.184034169
      0.0426858701 0.00871170498 0.0116509069 0.0152031621 0.0505268201
      0.11733067 0.209334761 0.217070758 0.0851770937 0.0217215158
      0.015072884 0.0301489308 0.0275204349 0.0303135738 0.134894207
      0.279953957 0.334085315 0.209809721 0.0850293487 0.0178814605
      0.0187900681 0.0139674414 0.0393413007 0.150229782 0.295450747
      0.334085315 0.199318945 0.0356568322 0.00787736848 0.0125605138
      0.00769808562 0.0241256766 0.135211065 0.334085315 0.334085315
      0.334085315 0.0290571172 0.00443386938 0.00677387323 0.00421081204
      0.0467296354 0.178384304 0.121155255 0.0661914051 0.0621012263
      0.27050364 0.0641619638 0.0944147632 0.104538046 0.171844691
      0.157305464 0.104237348 0.0295162462 0.0222462509 0.27050364
      0.122885846 0.171956733 0.155138746 0.15740183 0.27050364
      0.108590595 0.0984787568 0.064921245 0.246956736 0.0387252159
      0.109474547 0.112207361 0.27050364 0.255890608 0.188992068
      0.117823116 0.0388321802 0.27050364 0.0718157887 0.180260882
      0.235678479 0.264891118 0.0911461785 0.09050183 0.0313538574
      0.00226772181 0.275374293 0.109419435 0.197804362 0.102517754
      0.0877968743 0.195305392 0.194921464 0.125017047 0.0401111357
      0.221047744 0.0408266969 0.158712775 0.112637512 0.17796731
      0.17729567 0.239719972 0.130353913 0.0537678674 0.275374293
      0.0684152544 0.19273226 0.126562878 0.151918039 0.275374293
      0.275374293 0.172287554 0.0699828044 0.275374293 0.0458889715
      0.133237973 0.0875892416 0.256938964 0.139280587 0.215788275
      0.143504798 0.0880049095 0.0912408158 0. 0.0775438994 0.171790406
      0.13512297 0.220463037 0.163412824 0.11735975 0.108777858
      0.204372182 0.0672719851 0.137996659 0.197013274 0.216623202
      0.263752848 0.263752848 0.157699078 0.0807266682 0.101587139
      0.0126135563 0.0461228527 0.0971651375 0.198154643 0.263752848
      0.263752848 0.179498285 0.137254536 0.263752848 0.0740265325
      0.0898098946 0.119447581 0.263752848 0.0887830108 0.0923034921
      0.176826581 0.138686761 0.274223149 0.0819697231 0.0972078815
      0.06021991 0.0712470338 0.0369812809 0.154318735 0.274223149
      0.215814784 0.244368613 0.0189718753 0.0449066311 0.0196252335
      0.0146885822 0.182269514 0.274223149 0.274223149 0.193401113
      0.274223149 0.0823187232 0.0643131956 0.0351072587 0.0942571163
      0.163818762 0.274223149 0.274223149 0.272849292 0.225088969
      0.0230839327 0.0212415401 0.00629604049 0.00414151326 0.0654490143
      0.20075725 0.248612195 0.188329995 0.11324425 0.00399671774
      0.0101148291 0.00771899894 0.0262551364 0.13765575 0.290861249
      0.290861249 0.290861249 0.0794846192 0.0304056983 0.00943751261
      0.0139267296 0.0488231778 0.163023874 0.290861249 0.290861249
      0.211516812 0.0557056628 0.0214883853 0.0103503121 0.000962146383
      0.00723036099 0.290861249 0.290861249 0.290861249 0.211068109
      0.0197453704 0.0768321902 0.0288055893 0.0211290214 0.0933711603
      0.0622866116 0.255765826 0.278231293 0.222713336 0.0310311671
      0.0348684862 0.0158620719 0.00785987917 0.0183118414 0.117250219
      0.330349624 0.330349624 0.142118573 0.0402693227 0.0255190656
      0.0148608442 0.00426769862 0.0180678517 0.132835284 0.248974264
      0.330349624 0.194682285 0.0433633737 0.0832565054 0.0518874824
      0.0346087553 0.0990837291 0.0818655714 0.330349624 0.330349624
      0.226284951 0.0807139277 0.0580550954 0.0680289641 0.0204033405
      0.0472603999 0.0479849689 0.200168684 0.224713713 0.10426984
      0.0167418122 0.00359020103 0.00370485359 0.000687695167
      0.00584295858 0.0270913579 0.179195851 0.348923266 0.345828772
      0.0142452456 0.00203778013 0.00193162053 0.000312588731
      0.0152744623 0.0377412327 0.348923266 0.348923266 0.0798405111
      0.011029169 0.00258632726 0.00487053813 0.000127214284
      0.0024843791 0.0285607334 0.348923266 0.348923266 0.348923266
      0.0100815203 0.000135852009 0.000128774715 2.08392485e-05
      0.0137060974 0.294276565 0.131750524 0.1029732 0.0254826192
      0.0748413354 0.00147951453 0.0498138629 0.0425301977 0.294276565
      0.294276565 0.168399751 0.104428887 0.042150557 0.276482135
      0.0397401713 0.119448766 0.120923661 0.294276565 0.294276565
      0.182678625 0.0760186389 0.00106418761 0.0236373823 0.
      0.0721046999 0.0886447057 0.294276565 0.294276565 0.176080406
      0.0663789585 0.0152237248 0.0504471883 0.0261672586 0.112085752
      0.11666289 0.294276565 0.140577897 0.111691557 0.076292932
      0.067055434 0.265956938 0.0949106887 0.189487591 0.106839545
      0.126014143 0.218699157 0.265956938 0.103605859 0.0646315888
      0.265956938 0.100898437 0.218360513 0.134393156 0.0803377032
      0.204518929 0.0618103966 0.0394337364 0.042343989 0.111437365
      0.107335605 0.265956938 0.232141465 0.20969367 0.0466215946
      0.0520945005 0.0434719287 0.0492175221 0.235347793 0.265956938
      0.265956938 0.265956938 0.0833383277 0.254676372 0.254676372
      0.121728376 0.0524676107 0.141048431 0.0626233369 0.0867055953
      0.0742041022 0.0958631858 0.254676372 0.254676372 0.254676372
      0.112926185 0.166983768 0.0495564453 0.0264727492 0.068910569
      0.193332627 0.0312469471 0.0605038963 0.0724702328 0.0393201597
      0.254676372 0.254676372 0.254676372 0.21342288 0.0486811809
      0.0375492014 0.150454 0.254676372 0.225665033 0.254676372
      0.210349649 0.131015927 0.0456528366 0.0388984494 0.106568605
      0.281380296 0.281380296 0.209003612 0.145991251 0.0260512885
      0.00716119073 0.016788872 0.0481811203 0.180619061 0.281380296
      0.281380296 0.276027769 0.147921637 0.0134225311 0.00246846047
      0.000778192771 0.00608078111 0.0181959085 0.100223467 0.218764246
      0.281380296 0.281380296 0.0107749151 0.0177128203 0.00876189116
      0.00998563413 0.0795893297 0.151099488 0.255044043 0.281380296
      0.281380296 0.00791766681 0.0026895171 0.000182050731
      0.00781814754 0.173189044 0.274938762 0.274938762 0.187245458
      0.0810716227 0.0184782948 0.00255024526 0.00207848148
      0.00580861606 0.274938762 0.274938762 0.249278888 0.119387969
      0.0308289453 0.0390005112 0.030996535 0.0740623921 0.118034184
      0.0813356414 0.126070097 0.24309653 0.274938762 0.274938762
      0.0163681284 0.00786161143 0.00504962355 0.00808276609 0.190288588
      0.247220829 0.274938762 0.274938762 0.156392753 0.0242859609
      0.0519028381 0.10092333 0.0631152317 0.0856073648 0.115796991
      0.226778045 0.0634570867 0.00795283541 0.0171111021 0.022162227
      0.034592811 0.0746938214 0.0198609531 0.375090599 0.375090599
      0.13113828 0.0158908162 0.00921541359 0.0213559773 0.0110245459
      0.0295045841 0.0669057071 0.158505887 0.375090599 0.226047814
      0.00982220937 0.00309005333 0.0154753169 0.032188274 0.0306675322
      0.0197776277 0.339951724 0.375090599 0.362204731 0.00114065118
      0.000273981481 0.00227351626 0.00360154384 0.00987879932
      0.00775665184 0.336811215 0.336811215 0.060851004 0.0048323865
      0.00094528636 0.00377689395 8.89135117e-05 0.00114362699
      0.0174316559 0.336811215 0.336811215 0.245882094 0.0231529996
      0.00302632456 0.00274202321 0.00323423138 0.0113765514
      0.00424642768 0.336811215 0.336811215 0.158964112 0.00334370392
      0.000988488784 0.00220357813 0.00801051781 0.00860733259
      0.0484200865 0.286920786 0.332675487 0.146503091 0.0440874882
      0.0102634579 0.0190126039 0.0367176607 0.0687088147 0.310440719
      0.0804638118 0.0520477258 0. 0.0496875867 0. 0.083432667
      0.13848637 0.310440719 0.310440719 0.0630554631 0.0499127135
      0.0167079028 0.0896318108 0.00167316222 0.0751285478 0.147496864
      0.310440719 0.310440719 0.0817600638 0.0253112633 0. 0.0621722564
      0. 0.0436599925 0.215182379 0.310440719 0.310440719 0.0675693229
      0.032850273 0.0435720347 0.186927602 0.0176861584 0.0447816253
      0.204284877 0.310440719 0.142399803 0.0222106073 0.0451142415
      0.0683828443 0.196458131 0.0896856859 0.145266697 0.155759931
      0.166560858 0.04761016 0.02582114 0.0534527004 0.123565465
      0.261360765 0.261360765 0.261360765 0.261360765 0.092461668
      0.210540771 0.0310327839 0.0907697827 0.157935604 0.261360765
      0.0763385668 0.047876291 0.120474756 0.243786484 0.0915009007
      0.225753576 0.261360765 0.261360765 0.261360765 0.156330273
      0.0830211937 0.113528088 0.0998988599 0.0162559394 0.0230813585
      0.030461451 0.0570536815 0.258556873 0.258556873 0.234868228
      0.133994669 0.0347795822 0.00738030812 0.0534438342 0.131676123
      0.195913047 0.258556873 0.258556873 0.190534845 0.0469887294
      0.00303413183 0.0968087167 0.212998942 0.169019237 0.153563976
      0.258556873 0.15403223 0.107148468 0.0628389046 0.0636462048
      0.111831203 0.212409914 0.249789581 0.258556873 0.258556873
      0.230929196 0.162636548 0.0356670134 0.0427674986 0.00445898762
      0.0253680162 0.111380853 0.262515008 0.287010372 0.0265442748
      0.0348479971 0.00892634504 5.41884801e-05 0.0119610541
      0.0451433286 0.287010372 0.287010372 0.287010372 0.00916114729
      0.00541926082 0.000314308447 0.000812827202 0.0682024583
      0.213501349 0.287010372 0.287010372 0.270551264 0.0426571071
      0.0324927531 0.00576690584 0.00307535543 0.0734255165 0.287010372
      0.287010372 0.287010372 0.194201723 0.0041641579 0.00265688729
      0.000207560879 0. 0.00977959763 0.064258039 0.209319383
      0.249492884 0.162583172 0.00294194464 0.004066722 0.00122788572
      0.00169931585 0.0193233825 0.193204835 0.310797215 0.310797215
      0.155271292 0.00534441322 0.0126107596 0.0122056426 0.0057833218
      0.032625407 0.310797215 0.310797215 0.246207461 0.0774467438
      0.00054779218 0.000435214111 5.59448163e-05 0.000190666004
      0.0263908505 0.310797215 0.310797215 0.310797215 0.226765931
      0.0443943515 0.00539269298 0.000165244288 0.000419465243
      0.01151862 0.180694535 0.30797562 0.30797562 0.0999816507
      0.00655688811 0.00427483767 0.00578886596 0.00201069331
      0.00576780876 0.196015388 0.30797562 0.30797562 0.0599223152
      0.0104384162 0.00379170082 0.00300009525 0.00238474249
      0.00489109708 0.14573659 0.30797562 0.30797562 0.282411098
      0.13819477 0.0331330448 0.00774968881 0.00610098569 0.0736095682
      0.121622525 0.220969215 0.281500161 0.200208649 0.143554106
      0.0671985224 0.041442167 0.0790555179 0.020439798 0.212152585
      0.339287341 0.308905005 0.0260778423 0.00621034298 0.0103669455
      0.0201812182 0.020053586 0.107218958 0.339287341 0.261408955
      0.0830388889 0.0239057932 0.0068282662 0.0217790566 0.0618449971
      0.12565212 0.189347029 0.339287341 0.218636647 0.16699855
      0.0799623653 0.0362244248 0.0380070135 0.0339668766 0.0925925598
      0.187329635 0.339287341 0.339287341 0.0545491613 0.0325285383 0.
      0.00402118359 0.00838471111 0.0384869725</_>
    <_>
      0.00901728962 0.0378946885 0.17052111 0.25554952 0.289370358
      0.111177787 0.150967717 0.114460997 0.0544280745 0.00378612475
      0.0192569178 0.16318585 0.286549091 0.289370358 0.120757125
      0.111399367 0.13049233 0.0615612417 0.0147354417 0.198279485
      0.289370358 0.289370358 0.241893515 0.00532765454 0.00412273686
      0.00152552477 0.00769812986 0.0413038805 0.220506221 0.289370358
      0.289370358 0.204965547 0.00645873277 0.00948205963 0.00447709532
      0.00179087184 0.0205562823 0.0674197301 0.245009273 0.293692082
      0.226666078 0.0883822441 0.032134328 0.0616080202 0.0612619817
      0.17344825 0.293692082 0.293692082 0.293692082 0.0897484049
      0.0157076381 0.00369547354 0.0277059097 0.0628722906 0.0334018655
      0.124516904 0.293692082 0.293692082 0.196803898 0.00879291631
      0.00298389327 0.00245592417 0.00157041615 0.054391548 0.165220186
      0.293692082 0.293692082 0.212490678 0.00270605786 0.00211414415
      0.0151066305 0.00649829302 0.273187548 0.273187548 0.273187548
      0.231469974 0.0340875536 0. 0.0118329842 0.022204211 0.0304846819
      0.273187548 0.273187548 0.273187548 0.155631155 0.0385842584
      0.00745965028 0.0405761003 0.112045191 0.166738331 0.100411668
      0.253134757 0.273187548 0.273187548 0.148832947 0.00413480867
      0.0229313523 0.0471951589 0.020813778 0.135961235 0.203746751
      0.212825671 0.168951049 0.0858629122 0.0212371964 0.0667843372
      0.143282861 0.0999134928 0.162273064 0.0794620216 0.0719337612
      0.0569295734 0.126703769 0.179045692 0.13915275 0.162326902
      0.17974107 0.286376148 0.286376148 0.118594602 0.0365260318
      0.278717548 0.286376148 0.286376148 0.286376148 0.286376148
      0.0737026259 0.0559499301 0.062440373 0.0497937165 0.0165303163
